754 100 19327
equivalent 0.0112178148701787 -0.04587125405669212 -0.028357021510601044 0.030174223706126213 -0.049426790326833725 -0.18432481586933136 0.08797869831323624 0.01728355698287487 -0.040982432663440704 -0.04002075269818306 -0.024934541434049606 0.05968908220529556 -0.14119237661361694 0.17326080799102783 -0.028641236945986748 0.15894925594329834 0.05940266326069832 -0.24085432291030884 0.01952006295323372 0.025899047031998634 0.012459945864975452 -0.05411848425865173 0.025535546243190765 0.09261205792427063 -0.04924020171165466 -0.09179851412773132 0.03199766203761101 0.07685013860464096 0.08360280841588974 -0.04438203200697899 0.032431457191705704 0.018974296748638153 0.15704132616519928 0.005109959747642279 -0.09158047288656235 0.010317566804587841 -0.04474689066410065 0.07182429730892181 0.10603209584951401 -1.222333958139643E-4 0.25709986686706543 -0.10392970591783524 0.028204692527651787 -0.004814727697521448 0.12827293574810028 0.017110364511609077 -0.09774398058652878 0.03581983596086502 0.047114890068769455 -0.20773956179618835 0.14601339399814606 0.0662384107708931 0.07962452620267868 -0.0672721415758133 0.0012300456874072552 0.18275867402553558 -0.05335197597742081 -0.020809605717658997 0.052259884774684906 -0.08798332512378693 -0.08122941851615906 0.13023081421852112 -0.014835204929113388 0.020273054018616676 -0.038666073232889175 -0.10716190189123154 -0.006610378623008728 -0.14428769052028656 0.1295432597398758 -0.039351947605609894 0.0160713791847229 0.08476628363132477 -0.014189067296683788 -4.036812752019614E-4 0.0313902273774147 0.14517024159431458 -0.07050167769193649 0.02563181333243847 -0.03948978707194328 -0.002429106505587697 -0.13249161839485168 -0.1714342087507248 0.15524473786354065 0.10863414406776428 -0.04472392424941063 -0.054601650685071945 -0.27263498306274414 -0.15426956117153168 -0.10400325804948807 -0.08938762545585632 -0.01490679383277893 -0.10195611417293549 0.19817359745502472 0.12654927372932434 0.2342406064271927 0.11010957509279251 0.014167976565659046 0.03482652083039284 0.0072448062710464 0.16327330470085144
parent -0.11123306304216385 -0.020597852766513824 0.048798106610774994 0.08261100202798843 0.11390369385480881 0.008755004964768887 -0.01684558019042015 -0.1229030191898346 0.007444463670253754 -0.13785229623317719 0.018959827721118927 -0.10416746139526367 -0.03204263374209404 0.16570430994033813 0.1477399319410324 -0.043302446603775024 -0.041097529232501984 -0.02615094557404518 -0.09740395098924637 -0.14560994505882263 -0.026660988107323647 -0.10424669831991196 -0.007791442330926657 0.11939480155706406 0.019166812300682068 -0.0744156688451767 0.06538616865873337 0.022990697994828224 0.012032251805067062 -0.05040879547595978 0.07365228980779648 0.08624381572008133 -0.12808221578598022 -0.1823258399963379 -0.10863647609949112 0.12478908896446228 0.19454368948936462 0.06145701929926872 0.08507435768842697 0.15375737845897675 0.020442264154553413 -0.028999241068959236 -0.09050306677818298 -0.11472255736589432 0.05530799180269241 -0.051192305982112885 0.005541094113141298 -0.013712375424802303 0.1729363650083542 -0.02828477881848812 0.008265627548098564 0.09934704750776291 -0.09556805342435837 -0.02939882129430771 0.1365717500448227 0.08336341381072998 -0.204923614859581 0.09603944420814514 0.13451538980007172 -0.17067502439022064 -0.10345712304115295 0.24371394515037537 0.02020169608294964 0.1331319957971573 0.09146726131439209 -0.008408721536397934 -0.07350089401006699 -0.11315737664699554 0.051422227174043655 -0.01792941987514496 0.025709187611937523 0.07971108704805374 -0.0026461740490049124 0.1122765988111496 -6.012031226418912E-4 0.22361481189727783 0.009019158780574799 -0.06795018911361694 -0.13925819098949432 -0.10247578471899033 0.07509270310401917 -0.13247446715831757 -0.12448648363351822 -0.015841560438275337 -0.16307756304740906 -0.12204895168542862 0.09508844465017319 0.0101168192923069 -0.0068093715235590935 0.02618015557527542 -0.05052921921014786 0.09941451251506805 0.11181365698575974 0.1134701669216156 0.03894675150513649 0.2237406224012375 -0.13421230018138885 0.05414392799139023 -0.021433191373944283 -0.07748471945524216
been -0.04932781308889389 -0.03536352887749672 0.03701738640666008 0.03682473301887512 0.11285733431577682 0.09300671517848969 -0.026309875771403313 -0.1471869945526123 0.126429483294487 -0.1068989634513855 0.02096981182694435 -0.14184461534023285 -0.21342520415782928 0.08188469707965851 -0.05645563825964928 0.10960759222507477 -0.023550385609269142 -0.010585630312561989 -0.22237612307071686 0.027572643011808395 -0.04071788117289543 -0.14978156983852386 0.12610256671905518 0.17210909724235535 -0.008343929424881935 -0.20443907380104065 0.019099853932857513 -0.08107566088438034 -0.03214959427714348 -0.1149243637919426 -0.07779587805271149 0.05253753438591957 -0.044083110988140106 -0.08714712411165237 -0.025158636271953583 0.16670632362365723 0.24733269214630127 0.04584990814328194 0.16769596934318542 0.18614892661571503 0.15373145043849945 -0.10100670158863068 -0.07898954302072525 -0.0873190239071846 0.019389044493436813 -0.0452435240149498 0.011854139156639576 0.04228230565786362 0.11490626633167267 -0.052774861454963684 0.11754414439201355 0.0883830338716507 0.08749782294034958 -0.04554693028330803 0.174401193857193 0.04322891682386398 -0.14946404099464417 0.06643567979335785 -0.09483963996171951 -0.21195022761821747 -0.214675173163414 0.2874070703983307 0.06024843826889992 0.02764883078634739 0.09479087591171265 -0.04987716302275658 -0.00438251718878746 0.008894231170415878 0.15033969283103943 -0.060167908668518066 0.013341378420591354 -0.002219130052253604 -0.11081636697053909 0.10214756429195404 -0.020219285041093826 -0.08229568600654602 -0.04647921770811081 -0.1267007440328598 -0.03169523552060127 -0.007819106802344322 -0.011831880547106266 -0.0016113242600113153 -0.044139716774225235 7.500734645873308E-4 -0.013141264207661152 0.02635529637336731 0.03403502330183983 0.004669851157814264 -0.04569176957011223 -0.05502950772643089 -0.08901676535606384 0.05777319148182869 0.10173318535089493 0.0385340116918087 0.04958880692720413 -0.0779232531785965 -0.01900903880596161 0.01633453741669655 -0.049462687224149704 0.03889957442879677
Caper 0.12183063477277756 0.019155845046043396 -0.02895919606089592 0.04130687937140465 -0.08194397389888763 0.111005999147892 0.06105710193514824 -0.04258210211992264 0.04657025262713432 0.003539635566994548 -0.07972945272922516 -0.22366102039813995 -0.07893229275941849 0.05054331198334694 -0.130510151386261 -0.14436966180801392 -0.024712031707167625 0.17636124789714813 -0.11158666014671326 -0.016136357560753822 0.08561799675226212 0.024953655898571014 0.16484247148036957 0.009792549535632133 0.0335802361369133 -0.0443982370197773 -0.10369983315467834 0.04573242366313934 -0.005260408855974674 -0.16896462440490723 0.05345235392451286 0.02644011750817299 0.01855824887752533 -0.16071225702762604 -0.11556509882211685 0.017055926844477654 0.11056351661682129 -0.0014530002372339368 0.03491092100739479 0.1204976886510849 0.020689481869339943 0.06833677738904953 0.0854494720697403 -0.14863014221191406 -0.17349658906459808 -0.021189292892813683 -0.08209596574306488 0.12852053344249725 0.07643302530050278 -0.052070003002882004 0.015874508768320084 -0.054340485483407974 -0.11189143359661102 -0.047033295035362244 0.01170608215034008 -0.04570317640900612 -0.12076932936906815 0.06446098536252975 -0.11564408242702484 -0.11927425116300583 -0.15402065217494965 0.11145643889904022 -0.10066763311624527 0.08904805779457092 -0.04580921679735184 -0.015324603766202927 -0.15011610090732574 0.129646897315979 0.1456817090511322 0.13612675666809082 -0.0386691689491272 0.10742247849702835 -0.13933292031288147 0.16110125184059143 0.08588127791881561 -0.0796738788485527 -0.15356948971748352 0.1497972011566162 0.021456385031342506 -0.021862704306840897 0.05294790118932724 0.11490752547979355 0.08502893149852753 -0.06805367022752762 -0.07063683122396469 -0.1866571456193924 0.07738633453845978 -0.07482831180095673 -0.07952878624200821 -0.17861837148666382 0.11766044050455093 0.07490906864404678 0.21875843405723572 -0.08764392137527466 0.15061050653457642 -0.01226131897419691 0.08188728243112564 0.05944652482867241 0.09235242009162903 -0.06888691335916519
probeinconsistenttopping -0.08515822142362595 0.05447753518819809 0.14226652681827545 -0.06975887715816498 0.0822187140583992 0.08217880874872208 -0.044775962829589844 -0.10833585262298584 0.017645083367824554 -0.1422671526670456 -0.0038189676124602556 -0.07511886209249496 -0.03616858646273613 0.1404922604560852 -0.05290207639336586 0.02734772302210331 0.037148430943489075 0.030518528074026108 0.028500868007540703 0.13634243607521057 -0.07032398134469986 -0.17215047776699066 -0.02290494740009308 0.14018544554710388 -0.06451160460710526 -0.14344635605812073 -0.007979223504662514 -0.039797522127628326 -0.03124515525996685 -0.019517365843057632 0.04531054571270943 -0.039558351039886475 -0.17655789852142334 -0.08893942087888718 -0.07181555032730103 0.02151918038725853 0.14938682317733765 0.009176578372716904 0.11600111424922943 0.14920946955680847 -0.018540428951382637 0.07629860937595367 -0.21583771705627441 -0.0773363709449768 0.05047142878174782 -0.055731985718011856 -0.016476383432745934 0.051094330847263336 0.024829097092151642 -0.12845613062381744 -0.03972628340125084 0.03156506270170212 0.06776075810194016 0.05636252462863922 0.09448655694723129 -0.010912807658314705 -0.17013466358184814 0.10667707026004791 0.13589458167552948 -0.20121636986732483 -0.2306637167930603 0.11941172182559967 -0.007452054414898157 0.07044502347707748 -0.12525756657123566 -0.06792918592691422 -0.12595190107822418 0.08894757181406021 0.059188101440668106 -8.743941434659064E-4 -0.017846109345555305 0.06720559298992157 0.01252785325050354 0.18796171247959137 -0.020985662937164307 0.23205028474330902 -0.17650674283504486 0.005000659264624119 -0.040763113647699356 -0.021234415471553802 0.034452494233846664 -0.21005669236183167 -0.06781774759292603 -0.04484587907791138 -0.1034487709403038 0.007407039403915405 0.12653054296970367 -0.00231480086222291 -0.04668259248137474 -0.13730451464653015 -0.03979494795203209 0.04697495698928833 0.16742771863937378 0.05609496682882309 0.1919023096561432 0.12496206909418106 -0.1413448303937912 0.06603457033634186 -0.11561767756938934 0.00981192197650671
Pepper -0.04563206434249878 -0.1009133905172348 -0.1246223896741867 -0.020295273512601852 -0.00845708791166544 0.20195697247982025 -0.08434023708105087 -0.046840354800224304 0.1300579160451889 -0.20627595484256744 -0.06284176558256149 -0.1093166172504425 0.010175738483667374 0.05072362720966339 -0.10035409033298492 -0.24670961499214172 -0.03841954097151756 -0.09025746583938599 -0.027112169191241264 0.2873532474040985 0.029684176668524742 0.015154475346207619 -0.006439622491598129 0.04261191934347153 0.011331386864185333 -0.11750826984643936 -0.12100359797477722 0.035004615783691406 -0.04645460844039917 0.0338045135140419 -0.004038735758513212 0.06223612651228905 0.08900227397680283 -0.01777718774974346 -0.20124150812625885 -9.798138635233045E-4 0.12424851953983307 -0.15446926653385162 0.12586921453475952 0.1378077268600464 0.06618976593017578 0.0403006374835968 0.04458364099264145 -0.14166250824928284 -0.09900835156440735 -0.05694684758782387 -0.09653786569833755 0.16907013952732086 0.014585115946829319 -0.03839564695954323 -0.049868665635585785 -0.1772904247045517 0.0452708937227726 0.03815022110939026 0.048041392117738724 0.05513683706521988 0.03809121251106262 0.07229342311620712 0.012186146341264248 0.04714237526059151 -0.010442016646265984 0.10644164681434631 -0.15817253291606903 -0.010300330817699432 0.048577699810266495 0.1204683855175972 -0.004232304636389017 0.13551349937915802 0.080697201192379 0.05359381437301636 -0.09384537488222122 0.0716831237077713 -0.04412829503417015 0.1601630002260208 -0.16932889819145203 -0.09836872667074203 -0.02628040313720703 0.04840168356895447 0.03946198150515556 -0.01932412199676037 0.11433600634336472 0.08874567598104477 -0.08868888020515442 -0.10412033647298813 -0.008695285767316818 -0.07449574768543243 0.0033344298135489225 -0.10561738908290863 -0.21967174112796783 0.06993567198514938 0.10551981627941132 -0.012987281195819378 0.10834167152643204 -0.055810991674661636 0.22168684005737305 0.11839034408330917 -0.03217525780200958 0.09273163974285126 0.0665840432047844 0.0730222687125206
beef -0.0526638962328434 0.05236411839723587 -0.09748978167772293 0.03361666575074196 0.02176884561777115 0.02614797092974186 -0.0621628500521183 0.020873213186860085 -0.11261250078678131 -0.02556605450809002 -0.12689431011676788 -0.04387754574418068 0.1122906282544136 0.1857900321483612 -0.08371078222990036 0.11643195897340775 -0.10652872920036316 0.005416229832917452 0.08172044903039932 0.15153221786022186 -0.1371038556098938 -0.016685277223587036 0.07270381599664688 0.09253502637147903 0.04665175452828407 0.08733220398426056 0.14974813163280487 0.18938450515270233 -0.008027679286897182 0.031657520681619644 -0.14736448228359222 0.08399895578622818 0.053408000618219376 0.21104119718074799 0.09071889519691467 -0.15276466310024261 0.03358638659119606 0.11196557432413101 0.1350793093442917 0.1750757098197937 -0.047007523477077484 0.03265026584267616 0.20713116228580475 -0.0776832327246666 0.006659562699496746 0.2586893141269684 0.10091396421194077 -0.0272324550896883 0.13114087283611298 0.10300185531377792 -0.026958497241139412 0.032301370054483414 0.02076740190386772 0.07134799659252167 0.13139136135578156 0.10270186513662338 0.11703641712665558 0.04204961284995079 -0.009128285571932793 -0.05838844180107117 -0.12471450120210648 0.011950867250561714 0.07660441100597382 0.030700022354722023 0.06293503195047379 -0.09232378005981445 0.007815825752913952 0.18029749393463135 0.056504350155591965 -0.032937753945589066 -0.15034520626068115 0.03050966002047062 -0.12297632545232773 -0.0022192257456481457 -0.017264116555452347 -0.05222988873720169 -0.05656850337982178 0.06016271561384201 -0.14873650670051575 -0.1210547462105751 0.036822009831666946 0.08145377039909363 0.019350366666913033 0.05183935537934303 0.14230114221572876 -0.07784734666347504 -0.0741567611694336 0.011675725691020489 0.026695985347032547 -0.13058887422084808 0.17176581919193268 -0.01341341808438301 0.1185915470123291 0.04332374781370163 0.17440122365951538 0.009155314415693283 -0.04767512530088425 0.12321370095014572 0.20221535861492157 0.04018622264266014
http://www.co-ode.org/ontologies/pizza/pizza.owl#TomatoTopping -0.01408933661878109 -0.0014791301218792796 -0.010979514569044113 0.10692143440246582 -0.018899710848927498 -0.008154517039656639 -0.05146820843219757 0.003815190866589546 -0.06287398934364319 0.06322388350963593 0.003562050871551037 0.07397634536027908 0.05273080989718437 0.0026974789798259735 -0.08885855972766876 -0.10787951946258545 -0.05644489452242851 0.07481589913368225 0.0629955530166626 0.12184402346611023 -0.010615627281367779 -0.017398355528712273 0.05422472953796387 -0.1175372377038002 0.0844372808933258 -0.0064545804634690285 -0.062068141996860504 -0.05651617422699928 0.12003639340400696 -0.15503881871700287 0.002430098596960306 0.08851565420627594 0.06162185221910477 -0.0649782344698906 0.04218550771474838 -0.009320322424173355 0.0034596952609717846 0.265995591878891 -0.1254267692565918 0.012625987641513348 -0.30584466457366943 0.023141203448176384 0.031236637383699417 -0.2024008333683014 -0.10805316269397736 0.1010344848036766 -0.066001757979393 0.0556463785469532 0.05973749980330467 0.09938827902078629 0.08172529190778732 -0.09225854277610779 -0.1516406536102295 0.11196883022785187 0.08102310448884964 -0.012386027723550797 -0.10188361257314682 0.02481316402554512 -0.0361151359975338 0.03678764030337334 0.23477929830551147 0.041249241679906845 -0.10703528672456741 0.11153905838727951 -0.0265372134745121 -0.0811651423573494 -0.06947061419487 -0.005695598665624857 -0.05792141333222389 0.16987261176109314 -0.10538946092128754 0.19794727861881256 -0.08332733809947968 0.20194905996322632 0.16413624584674835 -0.13571804761886597 -0.06508366763591766 0.08012867718935013 -0.07216133922338486 -0.016726411879062653 -0.004677313845604658 -0.18568465113639832 -0.03094908408820629 -0.030180394649505615 -0.02765015698969364 -0.18554119765758514 0.023873889818787575 -0.04498596116900444 -0.07404648512601852 -0.1378895342350006 0.07071378082036972 -0.138852059841156 0.14645087718963623 -0.045017194002866745 0.1378609538078308 0.053394053131341934 0.1664833426475525 -0.05856850743293762 0.07917436212301254 -0.08609175682067871
sauce -0.10627120733261108 0.10588361322879791 0.0432327501475811 -0.018762758001685143 -0.0366356261074543 -0.1795446127653122 0.017298681661486626 0.06163228303194046 -0.05214845761656761 -0.25777456164360046 -0.09819719940423965 -0.052294451743364334 -0.06898052245378494 -0.00432930001989007 0.014405323192477226 -0.21524281799793243 -0.02993134781718254 -0.04261118918657303 -0.010321113280951977 0.08439238369464874 -0.09707473963499069 -0.08810734003782272 0.04650997370481491 0.13025416433811188 -0.043980274349451065 -0.08641698211431503 -0.15758056938648224 0.0904165506362915 0.09093772619962692 0.09929754585027695 -0.04824737831950188 -0.042065639048814774 0.03890848904848099 -0.1330357939004898 -0.03380065783858299 -0.020220959559082985 -0.03707288205623627 -0.0030822523403912783 0.12356936931610107 -0.12136663496494293 -0.006178191863000393 0.037377383559942245 0.015191301703453064 -0.0436367429792881 -0.04562738910317421 0.008247220888733864 0.028675438836216927 0.04899648576974869 0.07800305634737015 -0.037107355892658234 -0.12608633935451508 -0.06939766556024551 -0.04119586572051048 -0.07309500128030777 0.2147665172815323 0.129892960190773 0.09461470693349838 -0.012640370987355709 -0.06111292541027069 -0.05749291554093361 0.013209019787609577 0.011356544680893421 -0.26693451404571533 -0.17193765938282013 -0.019980786368250847 -0.06766722351312637 0.14272655546665192 0.0573800764977932 0.022152004763484 0.10491634160280228 0.02599332667887211 -0.1912451833486557 -0.11382229626178741 0.01648564450442791 0.014019339345395565 -0.006277438253164291 -0.08993131667375565 0.10476755350828171 0.013475196436047554 -0.20483827590942383 -0.14639244973659515 -0.054835204035043716 -0.0186807531863451 0.03502664342522621 0.16486988961696625 -0.04758633300662041 -0.05555001646280289 -0.1564740091562271 -0.07667994499206543 0.10681363940238953 -0.03272148594260216 -0.08374979346990585 0.06667051464319229 0.07937965542078018 0.24901646375656128 0.17142903804779053 -0.022141994908452034 -0.005593277048319578 0.08653531968593597 0.21600738167762756
http://www.co-ode.org/ontologies/pizza/pizza.owl#DeepPanBase -0.15715889632701874 -0.05062036216259003 -0.045679692178964615 0.11530736833810806 -0.012171792797744274 -0.07330698519945145 -0.11048945039510727 -0.07308859378099442 -0.07232104986906052 -0.051732033491134644 0.06333040446043015 -0.024504074826836586 0.06865762919187546 0.12153443694114685 -0.08632971346378326 0.008608369156718254 0.03492335230112076 -0.04039511829614639 0.15877041220664978 -0.03890562430024147 -0.051584359258413315 0.029533781111240387 -0.04277778044342995 0.02315574884414673 0.1498727947473526 -0.05912334844470024 -0.17680399119853973 0.001954207429662347 -0.06479733437299728 -0.09027253836393356 -0.09149356931447983 0.1406632363796234 -0.029903249815106392 -0.01559225283563137 -0.15727674961090088 0.11365228146314621 0.08817723393440247 0.11055146157741547 -0.0051950025372207165 0.08880069851875305 -0.04615937918424606 -0.08589910715818405 -0.03728034347295761 -0.08163955807685852 0.004108222667127848 0.06234358996152878 -0.1931690126657486 0.03532540053129196 -0.08612949401140213 -0.03755127638578415 -0.10645847767591476 -0.09969038516283035 -0.142812117934227 0.17960211634635925 0.02307528629899025 0.04166452959179878 -0.13443206250667572 -0.13675075769424438 0.07828684896230698 -0.02428097277879715 -0.07200882583856583 0.15867504477500916 -0.1722954660654068 0.07834207266569138 0.06897547096014023 0.05790483579039574 -0.05519697442650795 -0.02654113620519638 0.20163586735725403 0.12716716527938843 -0.060049980878829956 -0.015144295059144497 -0.03572364151477814 0.08739063143730164 -0.09780465066432953 0.05236398056149483 0.11944176256656647 0.09004785865545273 0.03173124045133591 -0.10203517228364944 0.032570116221904755 -0.0618513748049736 0.08735492080450058 -0.3065856993198395 -0.1771823763847351 -0.11270402371883392 -0.2423248291015625 0.016175953671336174 -0.1558462530374527 0.1628846377134323 0.025458550080657005 0.03529873490333557 0.04904772341251373 0.12463393062353134 0.1189773753285408 0.014453546144068241 -0.025867542251944542 -0.06035914272069931 0.002354278927668929 0.11689132452011108
without -8.880584500730038E-4 0.004055437166243792 0.13083148002624512 0.04982511326670647 0.2211923450231552 0.045511700212955475 0.01442176103591919 -0.07308938354253769 0.011096532456576824 -0.04204177483916283 -0.094731904566288 -0.032012563198804855 -0.02208396978676319 0.06893880665302277 0.12184987962245941 -0.12545263767242432 -0.081919826567173 -0.05386640876531601 -0.14590223133563995 0.10203344374895096 -0.016261644661426544 0.08236618340015411 0.11777596920728683 0.11750555783510208 -0.0988619476556778 -0.1486392468214035 -0.01275726966559887 -0.09180201590061188 -0.049856655299663544 -0.06483291834592819 0.03093276359140873 0.0035110819153487682 -0.028431003913283348 -0.10488108545541763 -0.08118874579668045 0.1609000861644745 0.18642103672027588 -0.0083248820155859 0.09815916419029236 0.18201446533203125 0.05864810198545456 0.01763593778014183 -0.08757416158914566 -0.055265285074710846 -0.06604088097810745 -0.06382708251476288 0.11545806378126144 0.010041885077953339 -0.01318447757512331 -0.17332050204277039 0.08893658965826035 -0.05740230157971382 0.1260944902896881 -0.05577297508716583 0.06744816899299622 0.09670624136924744 -0.17937669157981873 0.047484178096055984 -0.07182932645082474 -0.09043215960264206 -0.17051100730895996 0.1491626352071762 -0.0666697770357132 0.09498434513807297 0.13798241317272186 0.01633012294769287 -0.09034182876348495 0.11913827061653137 0.14494779706001282 -0.09190322458744049 0.13507921993732452 -0.1336544007062912 -0.14361028373241425 0.10805227607488632 -0.008095731027424335 0.17855629324913025 -0.08552245795726776 0.08144617080688477 -0.04432724043726921 -0.10228392481803894 0.03817985579371452 -0.132547065615654 0.002371828770264983 0.046834979206323624 0.04359670355916023 -0.15090437233448029 0.08333101123571396 0.04961242899298668 -0.042229194194078445 -0.1787869781255722 0.015719523653388023 0.1444934457540512 0.16312088072299957 0.0660814717411995 0.1948624700307846 0.04075935110449791 -0.14336471259593964 0.0785885900259018 -0.02799719199538231 -0.026713475584983826
setting -0.17375725507736206 0.08217465877532959 0.11464706808328629 0.09731071442365646 0.01953064650297165 0.03584569692611694 -0.06647618114948273 -0.18451258540153503 -0.22739818692207336 -0.09810596704483032 0.06362833082675934 0.031638868153095245 -0.024264328181743622 0.17744293808937073 0.06581252813339233 -0.014482669532299042 -0.07527755945920944 -0.12768618762493134 -0.04838985577225685 0.12226376682519913 -0.06462690979242325 -0.15991617739200592 -0.04076013341546059 0.07330134510993958 0.11327476054430008 -0.10543699562549591 -0.07783739268779755 -0.03220294043421745 -0.016205165535211563 -0.007854489609599113 0.04351145774126053 -0.01838371902704239 -0.141507089138031 -0.11969910562038422 -0.10889871418476105 -8.51362245157361E-4 0.07637252658605576 0.11321074515581131 0.18886113166809082 0.21244361996650696 -0.014394491910934448 -0.11423871666193008 -0.06726599484682083 -0.08299935609102249 -0.15169617533683777 -0.018495775759220123 0.10227257013320923 0.21143725514411926 0.14776575565338135 0.0747276023030281 -0.03073083609342575 -0.003960090223699808 -0.10713236778974533 0.09877128899097443 0.022346148267388344 -0.028410226106643677 0.0038867914117872715 -0.060956064611673355 0.0904511883854866 1.3291776122059673E-4 -0.10392271727323532 0.17409880459308624 -0.01058310829102993 0.10838235914707184 0.049764689058065414 0.015500489622354507 -0.15758126974105835 0.002942244987934828 0.06781724095344543 -0.1065969467163086 0.09904420375823975 0.1321367770433426 0.03188105672597885 -0.03496991842985153 -0.017169402912259102 0.1801496148109436 0.02675681561231613 -0.14274804294109344 0.09843669086694717 -0.08611304312944412 -0.01190799567848444 -0.01851836033165455 -0.010404637083411217 0.06261053681373596 -0.1735687404870987 -0.11040117591619492 -0.04559655487537384 -0.10955146700143814 0.06335989385843277 0.02114458940923214 -0.08501391112804413 0.11073559522628784 0.2278294712305069 0.04528262838721275 0.05454680696129799 0.00934528186917305 0.07496584951877594 -0.03222191706299782 -0.16180336475372314 -0.06574952602386475
these -0.02619786374270916 -0.06129405274987221 -0.004727352876216173 0.0028947649989277124 0.13818442821502686 0.11886069178581238 -0.024021055549383163 -0.14601163566112518 0.09150195866823196 -0.07096603512763977 0.04299469292163849 -0.12390778213739395 -0.19576534628868103 0.07938817888498306 -0.08982408046722412 0.04262169077992439 0.02231483906507492 -7.782874163240194E-4 -0.1968991458415985 0.018593227490782738 -0.021566351875662804 -0.13033801317214966 0.13916155695915222 0.16025230288505554 -0.0067153736017644405 -0.2209136039018631 -0.026659352704882622 -0.09404737502336502 0.022045742720365524 -0.12205430865287781 -0.11955398321151733 0.0644298791885376 -0.04805756360292435 -0.05315997079014778 0.01356732752174139 0.18322782218456268 0.20393106341362 -0.002677265787497163 0.11063878983259201 0.17449502646923065 0.14881408214569092 -0.07200676947832108 -0.03560550510883331 -0.09213756769895554 0.035151198506355286 -0.06647833436727524 -0.05123070627450943 0.09514067322015762 0.09899082034826279 -0.10128086060285568 0.056963808834552765 0.12982891499996185 0.10404146462678909 -0.09935343265533447 0.19822195172309875 0.04606980085372925 -0.16565728187561035 0.056884765625 -0.11538156867027283 -0.2708897590637207 -0.21426765620708466 0.22031840682029724 0.0671442449092865 -0.006681600119918585 0.07024700939655304 -0.06184247136116028 0.015513435006141663 0.05684984475374222 0.15772345662117004 -9.496556594967842E-4 -0.045445412397384644 -0.04062709957361221 -0.11883913725614548 0.1399860680103302 0.017321432009339333 -0.13670553267002106 -0.07529337704181671 -0.12164665013551712 -0.018350135535001755 0.004836454521864653 0.033113423734903336 -0.013117359019815922 -0.015764128416776657 -0.016569925472140312 0.04188815504312515 0.025554537773132324 -0.025646286085247993 0.014233596622943878 -0.015010337345302105 -0.039549753069877625 -0.03898651897907257 0.023126356303691864 0.1042049452662468 0.07055548578500748 0.08966147899627686 -0.05624408647418022 -0.0797470286488533 0.0516122542321682 -0.030769916251301765 0.06654198467731476
Mild 0.09183502942323685 -0.0518454983830452 -0.08335473388433456 0.057206638157367706 0.0692603811621666 -0.11818291246891022 0.06675020605325699 -0.11336608976125717 -0.058604542165994644 -0.07541939616203308 -0.04473559930920601 -0.06374096870422363 -0.047650497406721115 0.03038177266716957 -0.1388092190027237 -0.13535472750663757 0.06877908855676651 0.0427062101662159 -0.0718591958284378 0.13829289376735687 0.1662449687719345 0.07143937051296234 0.012710812501609325 0.006001805420964956 -0.03628883138298988 -0.00915331207215786 -0.06527092307806015 0.0028946467209607363 -0.09059886634349823 -0.06174766272306442 -0.055371224880218506 0.02918233536183834 -0.05261092260479927 -0.18537850677967072 -0.10485998541116714 0.013989018276333809 0.12109674513339996 0.16073386371135712 -0.04090821370482445 0.06106433644890785 0.09068925678730011 0.036660823971033096 -0.13642695546150208 -0.07941779494285583 -0.14648425579071045 0.1086331158876419 -0.11221245676279068 0.19898581504821777 -0.10928905755281448 -0.15818357467651367 0.1407167613506317 -0.04797375574707985 -0.06642603129148483 0.13073588907718658 0.023696836084127426 -0.10292065143585205 -0.2064797282218933 0.044975537806749344 -0.06336609274148941 -0.05891263857483864 -0.08864429593086243 0.20692436397075653 -0.18039409816265106 -0.034448061138391495 0.041682686656713486 0.00942263100296259 -0.13846096396446228 0.1254156529903412 0.11315634101629257 0.04960985854268074 -0.09172821044921875 0.1368950605392456 -0.10957175493240356 0.17495469748973846 -0.017434781417250633 -0.015028692781925201 -0.14510571956634521 0.17361222207546234 -0.06764514744281769 -0.04422406852245331 -0.04818835109472275 0.049458619207143784 0.010577143169939518 -0.13615822792053223 0.04303235560655594 -0.03829082101583481 0.0096255112439394 -0.07495324313640594 -0.08239840716123581 -0.15133915841579437 0.16351230442523956 0.07466498762369156 0.14226892590522766 -0.0024893302470445633 0.16767391562461853 -0.04563923180103302 0.04752875119447708 0.036627139896154404 0.17307394742965698 0.017932303249835968
OneOf: -0.007375835441052914 0.024722887203097343 -0.0024809606838971376 0.12073901295661926 0.05858023837208748 0.02446691319346428 -0.11451489478349686 -0.08317799121141434 -0.11590605229139328 0.012714198790490627 0.022721750661730766 -0.055646173655986786 -0.14275002479553223 0.07104776054620743 -0.12525761127471924 0.061144232749938965 0.01941627822816372 -0.053675659000873566 -0.11638294160366058 0.08590909838676453 0.07483158260583878 -0.019588269293308258 0.012935424223542213 -0.0461881123483181 0.03801627457141876 -0.04903719946742058 -0.06746785342693329 -0.18262594938278198 0.02909030392765999 -0.1439334899187088 -0.21197819709777832 -0.04135249927639961 -0.026854004710912704 -0.04994106665253639 -0.040412984788417816 0.19761641323566437 0.024875883013010025 -0.05435791239142418 0.10390807688236237 0.2338627427816391 0.05227547138929367 -0.011552808806300163 -0.12472483515739441 -0.019713440909981728 -0.030632562935352325 0.06272323429584503 -0.15108361840248108 0.19676730036735535 -0.1561860889196396 -0.10064080357551575 -0.08391912281513214 -0.1349402815103531 0.007011992856860161 -0.0546383336186409 0.13522936403751373 0.014146992936730385 -0.11987584829330444 0.059472884982824326 0.06621646881103516 -0.07589413225650787 -0.17710590362548828 0.09851671755313873 0.04862648621201515 0.09232156723737717 0.07084771245718002 -0.06541819125413895 -0.07934267073869705 0.1862083226442337 0.049330901354551315 -0.0798705443739891 -0.10362425446510315 0.11027702689170837 -0.184220090508461 0.0744110569357872 0.10763514041900635 0.06693697720766068 -0.12932473421096802 -0.05001533403992653 -0.0509512834250927 -0.017528677359223366 0.2075083702802658 0.008052186109125614 -0.05785398185253143 -0.1584496796131134 -0.021208278834819794 -0.19448164105415344 -0.07959895581007004 -0.03451200947165489 0.15605449676513672 -0.11916837096214294 0.16999930143356323 0.07819098979234695 0.10022180527448654 -0.0152901541441679 0.15284879505634308 0.09841285645961761 0.03694181889295578 0.0014953140635043383 -0.033617690205574036 0.016756640747189522
caprina 0.2776052951812744 0.05049532279372215 0.0361243337392807 0.006965540815144777 -0.0184005293995142 -0.10404270887374878 0.2176428884267807 0.05490818992257118 0.04445086792111397 -0.03984115272760391 -0.11890855431556702 -0.04966110363602638 0.03921595215797424 0.15057440102100372 -0.021571069955825806 0.2049296498298645 -0.2822721004486084 0.006414421368390322 -0.023188643157482147 -0.12732799351215363 0.1856904774904251 -0.0952921211719513 0.054874517023563385 0.027253540232777596 4.3283580453135073E-4 -0.0541858971118927 -0.08759444206953049 0.023397304117679596 -0.21483738720417023 -0.1663997918367386 0.043099578469991684 -0.052256181836128235 0.08950097858905792 -0.02320215478539467 -0.08066509664058685 -0.14559012651443481 0.0495879165828228 -0.004711909685283899 0.13995960354804993 -0.006127619184553623 0.06239466741681099 -0.05617964640259743 0.048549585044384 -0.036818135529756546 -0.033765584230422974 0.12169007211923599 0.1139565259218216 -0.02177431434392929 0.007834392599761486 0.12788677215576172 0.029158402234315872 -0.06216895952820778 0.03161468729376793 0.061862409114837646 0.20449918508529663 -0.08377113193273544 0.10763214528560638 0.10517936199903488 -0.11700894683599472 0.15618273615837097 -0.061705272644758224 0.03917134553194046 0.014985310845077038 0.14284424483776093 0.14448551833629608 -0.050143398344516754 0.1889043003320694 -0.13083325326442719 -0.033710770308971405 0.03699387609958649 0.005147859919816256 0.011990776285529137 0.06744709610939026 -0.03140542283654213 0.11466354876756668 -0.0696214959025383 -0.03556876629590988 0.04562193900346756 0.10626628249883652 -0.21178212761878967 -0.010263495147228241 -0.11203126609325409 -0.06948848068714142 -0.056742701679468155 -0.15839968621730804 -0.098792165517807 0.042929135262966156 0.09279371798038483 -0.0829058438539505 0.024027880281209946 0.017786256968975067 -0.032538626343011856 0.049228958785533905 -0.07179690152406693 0.16161301732063293 -0.04763726517558098 -0.02675519324839115 0.04593229666352272 0.03478461503982544 -0.022759975865483284
http://www.semanticweb.org/owl2vec#typeOf -0.10857313871383667 0.13516193628311157 -0.03684874251484871 0.0880696177482605 0.07237924635410309 -0.16025613248348236 -9.277525241486728E-4 0.03253018110990524 -0.08648309111595154 0.10275455564260483 -0.057512037456035614 -0.08243605494499207 -0.16639921069145203 0.10250183194875717 -0.1336248219013214 -0.02650884911417961 1.3680622032552492E-5 0.010510181076824665 -0.1898544728755951 0.11653019487857819 0.046896375715732574 0.05418531224131584 0.023427622392773628 0.10099809616804123 0.021930402144789696 -0.012040205299854279 -0.009026125073432922 -0.26262804865837097 -0.0030183428898453712 -0.01146128959953785 -0.09598582237958908 -0.22538377344608307 -0.10548512637615204 -0.07167132198810577 0.004480309784412384 0.1416594684123993 0.03773156553506851 0.08692917227745056 0.09147689491510391 0.13900421559810638 -0.04695148020982742 0.05682360753417015 0.014484056271612644 0.00804863590747118 -0.09709678590297699 0.1606462001800537 -0.08166340738534927 0.1688060313463211 0.0033547203056514263 -0.04386338219046593 0.09223467856645584 -0.212743878364563 -0.052212074398994446 -0.025805188342928886 0.04562339186668396 0.027390586212277412 -0.09735383838415146 0.006715420167893171 -0.17110058665275574 -0.015041894279420376 -0.12498204410076141 0.18515363335609436 -0.042056262493133545 0.17355719208717346 0.01357030589133501 -0.029889358207583427 -0.03032325580716133 0.14002351462841034 0.0937686339020729 -0.13534164428710938 0.021443599835038185 -0.031016694381833076 -0.15091854333877563 0.018970491364598274 0.21758787333965302 -0.10169737040996552 -0.10424664616584778 -0.06673002243041992 0.08022242784500122 -0.08776437491178513 0.006613794714212418 0.1360815018415451 -0.1139146164059639 0.040076252073049545 0.05152110382914543 -0.04169251024723053 -0.08796954154968262 0.19040730595588684 0.05056130513548851 -0.1254635453224182 0.01691039279103279 0.08870184421539307 0.14595355093479156 0.016189396381378174 -0.03730519860982895 0.05088765546679497 0.09072531014680862 0.03665347024798393 -0.07914315164089203 -0.08274152129888535
would -0.006091258022934198 -0.045975565910339355 0.12997345626354218 0.17365895211696625 0.19709622859954834 0.09085876494646072 -0.2167985588312149 -0.058381229639053345 -0.042291030287742615 -0.02451242133975029 -0.06535854935646057 -0.16763605177402496 -0.09693469107151031 0.26179808378219604 0.06399232894182205 0.025029616430401802 0.02727128006517887 -0.09783141314983368 -0.11408061534166336 0.01962367258965969 0.02416638843715191 -0.18900100886821747 0.06763700395822525 0.05619672313332558 0.013573534786701202 -0.1778290867805481 -0.017600588500499725 -2.480083785485476E-4 -0.04998299106955528 -0.18218106031417847 0.024407992139458656 -0.03671419993042946 0.14096185564994812 -0.014376968145370483 -0.09266488254070282 0.06921868026256561 0.06880814582109451 -0.01709996536374092 0.10819733142852783 0.113604336977005 0.2215612232685089 0.09816408157348633 -0.097847580909729 0.1472529023885727 -0.14475329220294952 0.03988896310329437 -0.051673807203769684 0.14375291764736176 0.03378656879067421 -0.13779807090759277 0.07480382919311523 -0.12037486582994461 0.0038033723831176758 0.030040724202990532 0.0750795528292656 0.05523421987891197 -0.13311158120632172 -0.08194415271282196 -0.06494061648845673 -0.11583524197340012 0.017407290637493134 0.17934513092041016 -0.03507080674171448 0.13577716052532196 0.10929065942764282 -0.04406879097223282 -0.052134208381175995 0.1064525917172432 0.13572801649570465 -0.05039604380726814 0.09904105961322784 0.02662278525531292 -0.0498528815805912 -0.027431024238467216 -0.05569101870059967 0.13487325608730316 -0.11172164231538773 -0.057086266577243805 -0.11112583428621292 -0.05127355083823204 0.1599031537771225 -0.006190882995724678 0.16494633257389069 0.07600808888673782 0.06182948499917984 -0.08048126846551895 -0.09271052479743958 -0.07534010708332062 -0.011969528160989285 -0.09048546850681305 -0.032179392874240875 0.1257656216621399 0.00780000165104866 0.04294399544596672 0.13548006117343903 -0.037497151643037796 0.05702986940741539 0.03695746511220932 -0.06892585009336472 -0.03660118952393532
disjoint -0.06056858226656914 -0.0404924601316452 0.10969711095094681 0.13102339208126068 0.08231320977210999 0.07063683867454529 0.023074964061379433 -0.15361525118350983 0.18575701117515564 -0.06964345276355743 -0.1280311942100525 -0.14642451703548431 -0.14968399703502655 0.10203205049037933 -0.01490747183561325 0.14864356815814972 -0.017259320244193077 -0.05345878750085831 -0.09486760199069977 -0.025957394391298294 0.06500384211540222 -0.10231280326843262 -0.034036166965961456 0.05089742690324783 0.003909698221832514 -0.15852566063404083 -0.12451031804084778 -0.06582493335008621 0.041961465030908585 -0.2866334319114685 0.014539627358317375 -0.126756951212883 0.16790609061717987 -0.15552902221679688 -0.044118233025074005 0.16218721866607666 -3.1405268236994743E-4 -0.14033803343772888 0.0463484451174736 0.07008453458547592 0.06611896306276321 -0.08040878921747208 -0.08802399784326553 0.049713216722011566 -0.14396652579307556 0.026653418317437172 -0.04684515669941902 -0.029545120894908905 0.07870477437973022 -0.05812718719244003 -0.0011247055372223258 -0.06030378118157387 -0.07652824372053146 0.08895380795001984 0.1527368724346161 0.06799152493476868 -0.17461131513118744 -0.031689852476119995 -0.0015516175189986825 -0.05763491988182068 -0.09443286061286926 0.10065597295761108 -0.03799964860081673 0.029852144420146942 0.07367289066314697 0.08879966288805008 0.12460404634475708 -0.009355933405458927 0.15048417448997498 -0.1219053566455841 0.12953270971775055 0.10522592067718506 -0.029575295746326447 0.11798860132694244 9.243232780136168E-4 0.2458726167678833 -0.06528335064649582 0.08955523371696472 -0.1221436858177185 0.0010866130469366908 0.1487206667661667 -0.07368160039186478 0.0017622337909415364 -0.08602062612771988 -0.04752836748957634 -0.1343873143196106 0.04636862501502037 0.014532932080328465 -0.009757669642567635 -0.11679141968488693 -0.03572550415992737 0.0576719306409359 0.136892169713974 -0.07968880236148834 -0.014767141081392765 -0.10118469595909119 -0.04837297648191452 0.008949275128543377 -0.20441313087940216 -0.06546545028686523
Capricciosa 0.11433206498622894 -0.08968005329370499 0.009013913571834564 0.11033997684717178 -0.0029232967644929886 0.10581071674823761 0.04286259785294533 0.0318058505654335 0.10435003787279129 0.0651053711771965 -0.10280337184667587 -0.24889960885047913 0.0578719787299633 0.09596282243728638 0.030437521636486053 -0.12296967953443527 -0.0764569416642189 0.009652659296989441 -0.22055113315582275 -0.1080722063779831 0.05222024768590927 -0.016856655478477478 0.129348486661911 -0.10010109096765518 0.08263649791479111 0.016629327088594437 -0.07514408230781555 0.03476496785879135 0.0884343609213829 -0.14275339245796204 -0.1020936667919159 0.19122609496116638 0.06446491181850433 -0.03478846326470375 -0.054960984736680984 -0.04593484476208687 -0.04719679430127144 -0.09248631447553635 -0.0976622924208641 0.019378745928406715 0.0380350761115551 -4.341204185038805E-4 0.07502192258834839 -0.07619506120681763 -0.0693388506770134 0.07420438528060913 -0.1666637659072876 0.10304798185825348 0.0742984339594841 -0.09150601178407669 -0.1519077867269516 -0.0702093169093132 -0.07534299790859222 0.02188841998577118 -0.010565419681370258 0.1396624594926834 -0.13211047649383545 0.2093449831008911 -0.02767789363861084 -0.06746677309274673 0.01889096572995186 0.07988596707582474 0.01825861632823944 -0.037735629826784134 0.055524684488773346 -0.0039041806012392044 -0.040343038737773895 0.05296842008829117 0.060344938188791275 0.2703481614589691 -0.03233470395207405 0.018673397600650787 -0.16785095632076263 0.26500922441482544 -0.0045414092019200325 -0.0019752425141632557 -0.044126011431217194 0.0852128192782402 -0.04638977721333504 -0.0217195525765419 0.13105371594429016 -0.013258752413094044 0.08773403614759445 -0.17997238039970398 0.06335163116455078 -0.2425692081451416 -0.012599562294781208 -0.05194734409451485 0.011195193976163864 -0.04655516520142555 0.18064123392105103 0.019260602071881294 0.05299209803342819 -0.16857832670211792 0.12127921730279922 0.00499860430136323 -0.04161691293120384 0.007645891979336739 0.07962152361869812 -0.08457710593938828
property, 0.0778937116265297 0.09033932536840439 0.13110226392745972 0.12961414456367493 0.07233791053295135 0.07617302983999252 -0.0645046979188919 -0.1239641010761261 -0.07323256880044937 0.09223132580518723 -0.004278196953237057 -0.06497979164123535 -0.03177860006690025 0.18169429898262024 0.06576895713806152 0.08258523792028427 -0.055061377584934235 -0.07165951281785965 -0.03250912204384804 0.0384068638086319 0.12845999002456665 -0.024641891941428185 0.1337917000055313 0.12379664182662964 2.5992936571128666E-4 -0.16344031691551208 0.023418042808771133 -0.014009848237037659 -0.1952349692583084 -0.1457207053899765 -0.0014630559599027038 0.01185217872262001 -0.1103632003068924 -0.08589795231819153 -0.028309345245361328 0.05445347726345062 0.1361151784658432 -0.11705440282821655 0.056139025837183 0.16062328219413757 -0.026157760992646217 0.04447132721543312 -0.09380114823579788 -0.026715081185102463 0.050639744848012924 -0.12163737416267395 -0.010160638019442558 0.20569409430027008 0.14975689351558685 -0.04705611243844032 0.040858395397663116 -0.07105021178722382 -0.1515974998474121 -0.08617744594812393 0.06270598620176315 0.07808902859687805 -0.01456898171454668 0.018183674663305283 -0.02555999904870987 -0.26931896805763245 -0.13906580209732056 0.06800688058137894 -0.013824948109686375 0.11370979249477386 0.04733933135867119 0.10953294485807419 -0.05377119779586792 0.044092487543821335 0.21940667927265167 0.06291551887989044 -0.061456553637981415 0.05407865718007088 -0.0479687862098217 0.05880393087863922 0.007826301269233227 0.22390618920326233 -0.018360033631324768 -0.11189133673906326 -0.019112562760710716 -0.08627884089946747 0.07447647303342819 -0.06200890243053436 -0.07184950262308121 0.014290030114352703 -0.05677594989538193 -0.19502665102481842 -0.06903831660747528 0.18147630989551544 -0.009404855780303478 0.0024008231703191996 0.02239760383963585 0.12410479784011841 0.08771614730358124 0.19359779357910156 0.20347028970718384 0.053744979202747345 -0.10376826673746109 0.0331810861825943 -0.0728859230875969 0.0062804073095321655
interestingpizza 0.1298028528690338 -0.16726285219192505 0.16236567497253418 0.10702923685312271 0.01809731498360634 -0.18122966587543488 -0.03664590045809746 -0.12818144261837006 -0.11187149584293365 0.034248266369104385 0.0888945460319519 0.018960412591695786 -0.06125962361693382 0.18219056725502014 -0.28721004724502563 0.18747584521770477 -0.02075069397687912 -0.131088525056839 -0.07269736379384995 -0.06752295047044754 0.012880661524832249 0.026375167071819305 -0.002804071642458439 0.08703852444887161 0.11772437393665314 -0.04610901698470116 -0.08880513906478882 -0.050919946283102036 0.038389530032873154 -0.08867517858743668 -0.06441538035869598 -0.020156865939497948 0.14254248142242432 -0.12998440861701965 -0.02728879638016224 0.031220169737935066 0.027166934683918953 0.054179176688194275 0.21310214698314667 0.05617203190922737 -0.009231560863554478 0.02682897262275219 0.016725098714232445 -0.14581958949565887 0.10348787903785706 0.154558926820755 -0.09739381074905396 -0.16505703330039978 -0.11624491214752197 0.03263961151242256 -0.01658354513347149 -0.15336783230304718 0.020875824615359306 -0.061749279499053955 0.10129666328430176 0.10890442132949829 -0.07577934861183167 0.041551440954208374 0.14066962897777557 -0.009232916869223118 -0.2362586408853531 0.09692709147930145 -0.04355869069695473 -0.04046812281012535 -0.06525113433599472 0.006694618612527847 0.0913524180650711 0.0603426918387413 0.07341258227825165 -0.05193476378917694 0.049423202872276306 -0.07995212078094482 -0.026480183005332947 0.07337425649166107 0.12036119401454926 -0.03179356828331947 0.024890528991818428 0.05721864104270935 -0.0015238235937431455 0.027766335755586624 -0.13416960835456848 -0.04233875125646591 6.490005762316287E-4 -0.13776244223117828 0.10800685733556747 -0.039902374148368835 -0.2150750309228897 -0.0022940069902688265 0.1484871506690979 0.17687979340553284 -0.05562581494450569 -0.06995946913957596 -0.021407002583146095 0.01580015756189823 0.10728725045919418 -0.02457096427679062 0.012230005115270615 -0.07152850925922394 0.16230852901935577 0.06650449335575104
http://www.co-ode.org/ontologies/pizza/pizza.owl#PolloAdAstra 0.05044421926140785 0.1283508688211441 0.04260972887277603 -0.02758442796766758 -0.0878240317106247 -0.009873592294752598 0.03550245240330696 -0.026818446815013885 -0.05832810327410698 0.04206781089305878 -0.07015006244182587 0.03643489629030228 -0.009508964605629444 0.20747120678424835 0.12606112658977509 0.11020935326814651 0.016153311356902122 0.10879691690206528 -0.14139488339424133 -0.03644518926739693 0.021809885278344154 0.0421585775911808 0.009334038943052292 -0.03117777220904827 0.08760256320238113 0.044951677322387695 -0.21296405792236328 0.0652245432138443 -0.01972814090549946 -0.03735218197107315 0.0262908898293972 -0.012871332466602325 0.03589486703276634 0.029103122651576996 -0.041907891631126404 -0.1855011284351349 0.0916927307844162 -0.07570439577102661 -0.06998706609010696 0.09339949488639832 0.019826998934149742 0.026275986805558205 -0.011078739538788795 0.07940927892923355 -0.1769387423992157 0.1637779176235199 -0.015964694321155548 0.05596577003598213 0.13702693581581116 -0.08531103283166885 0.04214285686612129 -0.13876833021640778 -0.11513060331344604 0.23625941574573517 0.14793352782726288 -0.1473836451768875 0.01995699107646942 0.043451085686683655 0.03670486807823181 0.12099193781614304 -0.32617393136024475 0.12717999517917633 -0.03254705294966698 0.06716392189264297 -0.024326400831341743 -0.11207357794046402 -0.13316991925239563 -0.020974336192011833 -0.04564354941248894 0.04576563462615013 -0.10539889335632324 0.10624054074287415 0.03997376561164856 0.15920180082321167 -0.07996391505002975 0.08663942664861679 -0.08142693340778351 0.12566740810871124 0.05565805733203888 0.11150790750980377 0.01535814069211483 -0.10967151820659637 0.009199845604598522 -0.10574463754892349 -0.14046640694141388 -0.0355384424328804 0.10760379582643509 -0.15759478509426117 -0.06716238707304001 0.06261317431926727 0.2133309692144394 0.06945115327835083 0.18469400703907013 -0.01706903614103794 -0.11922194808721542 0.09650105983018875 0.05174395814538002 -0.07314570993185043 -0.021367425099015236 0.05714359134435654
because -0.07921144366264343 -0.08544842153787613 -0.03503131493926048 -0.02464408241212368 0.043032728135585785 0.005331308115273714 -0.10073941946029663 -0.05688828229904175 0.16475124657154083 0.028547512367367744 -0.010594643652439117 -0.032380785793066025 -0.04284525290131569 0.1333170086145401 0.029631387442350388 -0.0418972410261631 -0.11210034042596817 0.014305537566542625 -0.10653603821992874 -0.10406020283699036 -0.06448785960674286 -0.14777737855911255 0.053448066115379333 0.0811554417014122 0.05889327451586723 -0.21844357252120972 -0.11585498601198196 -0.13845126330852509 0.021913042291998863 -0.07061776518821716 0.008384199813008308 -0.13296958804130554 0.21616274118423462 -0.061243731528520584 -0.16053073108196259 0.08052518218755722 0.034181125462055206 -0.010507121682167053 0.05751999840140343 0.15805138647556305 0.09259308874607086 -0.013981994241476059 -0.016192102804780006 0.022381208837032318 -0.055384423583745956 -0.09021157771348953 0.049812715500593185 0.006634969264268875 0.2199050337076187 -0.010970968753099442 4.939642385579646E-4 0.08928173780441284 -0.024494292214512825 -0.11053705215454102 0.12291412800550461 0.11601956933736801 -0.08476269990205765 -0.05427658185362816 -0.0821075513958931 -0.06565164029598236 -0.1250321865081787 0.14868681132793427 -0.2005612999200821 0.03744708374142647 0.09262186288833618 -0.06616483628749847 -0.03421539440751076 0.06611775606870651 0.08901004493236542 -0.09941187500953674 0.12591148912906647 -0.0963209792971611 -0.08721214532852173 0.03088325634598732 0.03844717890024185 0.12837658822536469 -0.12773427367210388 -0.012414893135428429 -0.13178092241287231 -0.04480103403329849 -0.11738347262144089 -0.1287575364112854 -0.041107673197984695 0.01055228989571333 -0.05123091861605644 -0.1831689178943634 -0.05504905432462692 0.08179708570241928 0.09626159071922302 -0.055389560759067535 -0.15697988867759705 0.06471730768680573 0.28634798526763916 0.024215681478381157 0.11085778474807739 -0.017760396003723145 -0.131675586104393 0.03493268042802811 -0.22295230627059937 0.012574181891977787
InterestingPizza -0.019007422029972076 -0.049367859959602356 0.061452314257621765 0.057721760123968124 0.02209731563925743 0.02295883372426033 -0.06989650428295135 -0.06572039425373077 -0.14955727756023407 0.029243867844343185 0.056856557726860046 -0.10691089928150177 -0.05095167085528374 0.062116026878356934 -0.19995908439159393 -0.06216072291135788 -0.029072582721710205 0.06199963763356209 -0.022078700363636017 0.06994950026273727 0.07691595703363419 0.04458104074001312 0.02707223780453205 -0.03052406944334507 0.07213416695594788 0.043188776820898056 0.007286611013114452 -0.022858072072267532 -0.0232702549546957 -0.15784655511379242 -0.12233429402112961 0.08835675567388535 -0.03596135601401329 -0.2919093072414398 -0.10829295963048935 0.12175942957401276 0.04886315390467644 0.07941102236509323 0.054427437484264374 0.2614767849445343 0.07571716606616974 0.1432805210351944 -0.06770077347755432 -0.15796932578086853 -0.02763131447136402 -0.042431365698575974 -0.1614513397216797 0.18430554866790771 -0.03652479127049446 -0.05146009474992752 -0.015807174146175385 -0.1301492154598236 -0.07813828438520432 -0.010875440202653408 0.1527293622493744 0.009364401921629906 -0.20412151515483856 0.037314485758543015 -0.004791174083948135 -0.06830902397632599 -0.0587688609957695 0.16956724226474762 -0.05605032294988632 0.20806892216205597 0.013952776789665222 -0.0267907977104187 -0.06880363076925278 0.06654968112707138 0.13884322345256805 -0.06662727892398834 0.011614898219704628 0.09259428828954697 -0.15150532126426697 0.2274775356054306 0.10438244044780731 -0.010627327486872673 -0.15911707282066345 0.17030414938926697 0.07634513825178146 -0.009685025550425053 0.012414520606398582 -0.07592352479696274 -0.03336281701922417 -0.11345015466213226 -0.010358979925513268 -0.15705037117004395 -0.03551153466105461 -0.03447021171450615 -0.08710163086652756 -0.09301246702671051 0.06336050480604172 0.08300165832042694 0.09591025114059448 -0.001376994070596993 0.1736382693052292 0.06013599783182144 -0.0759410560131073 0.08533363789319992 0.08006860315799713 0.04846879839897156
http://www.co-ode.org/ontologies/pizza/pizza.owl#SauceTopping -0.15232230722904205 0.20787619054317474 0.10315188765525818 0.044791024178266525 -0.07920155674219131 -0.029332229867577553 0.11873889714479446 -0.012106843292713165 -0.09283111244440079 -0.10461638122797012 -0.07355473935604095 -0.05585624650120735 -0.02468719519674778 0.1296350061893463 -0.0989869087934494 -0.1751352995634079 0.019866392016410828 0.05172685906291008 0.016157109290361404 -0.06283358484506607 -0.06802275031805038 0.12402641773223877 0.01204617042094469 -0.0022094876039773226 0.12127991765737534 -0.14955541491508484 -0.009234778583049774 0.1844015121459961 -0.0636109709739685 -0.11688961088657379 -0.04175559803843498 -0.07651025801897049 0.1264360398054123 -0.10214342176914215 0.02967141754925251 0.03198355808854103 0.08421598374843597 0.14137816429138184 0.056552812457084656 0.058389078825712204 0.07368865609169006 0.18371589481830597 -0.10943126678466797 -0.25188758969306946 -0.050103310495615005 -0.040538083761930466 -0.10391649603843689 0.09941183030605316 0.06846321374177933 0.04622363671660423 -0.10201196372509003 -0.01295405812561512 -0.019702471792697906 0.12241598963737488 0.08559559285640717 0.03598519042134285 0.01023064274340868 0.05748320370912552 -0.030151555314660072 -0.09594237059354782 -0.09457007795572281 -0.09282097965478897 -0.11449215561151505 0.044859759509563446 -0.06848160177469254 -0.10052962601184845 -0.01940726488828659 0.17749327421188354 -0.0346965566277504 0.042832113802433014 -0.17502595484256744 -0.05516534298658371 -0.05692233517765999 0.057948850095272064 0.1161721870303154 -0.038507554680109024 -0.10615702718496323 0.00653818529099226 0.0646720826625824 -0.04911026731133461 -0.14098311960697174 -0.07747456431388855 0.042134396731853485 -0.0297952052205801 -0.08150577545166016 0.053133416920900345 -0.046525485813617706 -0.04650869593024254 0.08483212441205978 0.22768375277519226 -0.06835899502038956 -0.05794575437903404 0.22980321943759918 -0.023974481970071793 0.2291363775730133 0.03317667916417122 -0.16434849798679352 0.034238141030073166 0.1820375621318817 -0.006165579427033663
spicytopping -0.013249668292701244 0.21391578018665314 -0.028666676953434944 0.05462973937392235 -0.07991431653499603 -0.031294386833906174 0.13140910863876343 -0.0670597180724144 -0.08735259622335434 0.03775506466627121 0.02322627417743206 0.15963050723075867 -0.0874713733792305 0.09739383310079575 -0.05993788316845894 0.071712426841259 0.052074678242206573 -0.11907041072845459 8.670943207107484E-4 0.058827340602874756 0.15811531245708466 -0.07638613134622574 -0.028910476714372635 0.13590185344219208 1.7722771735861897E-4 -0.1256425529718399 0.03423613682389259 0.048742830753326416 0.04730157181620598 -0.01894586905837059 -0.009152235463261604 -0.01996402069926262 0.17083531618118286 -0.026558611541986465 -0.020626910030841827 0.08031564950942993 0.0429040752351284 0.2121862769126892 0.10043878108263016 0.13641127943992615 0.14903812110424042 0.05799524113535881 0.05942373722791672 -0.19819487631320953 0.19030974805355072 0.1318391114473343 0.13951529562473297 -0.03669454902410507 -0.15805533528327942 0.09948857873678207 0.09222521632909775 0.11721748858690262 0.05221860855817795 0.05737745016813278 0.07492481917142868 0.04878478869795799 0.1429545134305954 0.04586254060268402 0.08318765461444855 0.01016215793788433 -0.14647316932678223 0.050915613770484924 0.12307824194431305 0.08418291062116623 -0.12891148030757904 -0.04485885053873062 0.051225002855062485 0.01983618177473545 0.05454589053988457 -0.24742116034030914 -0.0609549805521965 0.11464333534240723 -0.06243764981627464 0.10526531934738159 0.11960022896528244 0.15405848622322083 -0.01961086317896843 0.04549846425652504 -0.10940166562795639 -0.03891022503376007 -0.20004993677139282 -0.21989013254642487 -0.06736753135919571 0.04068261757493019 -0.015122699551284313 -0.03958708792924881 -0.1596996784210205 -0.0038801352493464947 -0.04059445485472679 -0.03212267532944679 0.09258099645376205 -0.071283258497715 0.15917819738388062 0.06975030153989792 0.07653626799583435 0.12331259250640869 -0.022375117987394333 -0.011853604577481747 0.01568008027970791 0.056101370602846146
Reine 0.10218222439289093 -0.0708584189414978 0.02901500090956688 0.025312012061476707 0.09929566085338593 0.16766634583473206 -0.08280614763498306 0.06432737410068512 0.08692733943462372 -0.033289309591054916 -0.032968658953905106 -0.04171944782137871 0.016255315393209457 0.16058269143104553 -0.06611578166484833 -0.10952915251255035 -0.036375194787979126 0.08123219758272171 -0.2499324083328247 -0.03282386437058449 -0.016267895698547363 -0.01625213213264942 0.17587296664714813 -0.06954968720674515 0.09178490191698074 -0.1424170732498169 -0.11458064615726471 -0.13431602716445923 0.03464725986123085 -0.12554161250591278 -0.0077155474573373795 0.08302756398916245 0.00449264794588089 -0.15119211375713348 -0.10212785750627518 0.09926584362983704 -0.09309175610542297 0.04824023321270943 0.07577209919691086 0.08992903679609299 0.012838251888751984 0.01946837268769741 -0.017332376912236214 -0.060172464698553085 -0.2122803032398224 0.09268233180046082 -0.06504935026168823 0.10015824437141418 0.05297534167766571 -0.19856135547161102 -0.0653453916311264 -0.19695980846881866 -0.06418975442647934 -0.016566401347517967 0.050079118460416794 0.2561996877193451 -0.21689917147159576 0.08618523925542831 -0.06965713948011398 0.0038305341731756926 0.05566026642918587 -0.006831799168139696 0.07266780734062195 0.050812557339668274 -0.05355476588010788 0.04250043258070946 -0.023246949538588524 0.028158342465758324 0.044020917266607285 0.10407746583223343 0.01764483004808426 0.07489195466041565 -0.12529857456684113 0.3203189969062805 0.058903615921735764 -0.0176475141197443 0.007668574806302786 0.01303768064826727 0.08909071981906891 0.09202762693166733 0.10657927393913269 -0.045316509902477264 0.016333524137735367 -0.07480555772781372 -0.06302261352539062 -0.11229085922241211 0.08447771519422531 -0.07972580939531326 -0.04250672087073326 -0.11429882049560547 0.14082162082195282 0.012016933411359787 0.17956919968128204 -0.015663787722587585 0.120923712849617 0.07453840970993042 0.039266884326934814 0.039247382432222366 -0.07943515479564667 -0.10197851061820984
Thing 0.0433657206594944 -0.021306918933987617 -0.03291059285402298 0.006832292769104242 0.019613327458500862 0.0011717723682522774 -0.04169992357492447 -0.03869101032614708 0.04461347311735153 -0.01662285625934601 -0.045784059911966324 -0.014487982727587223 -0.04160560294985771 0.17784859240055084 -0.028634123504161835 -0.10336766391992569 -0.0350482314825058 -0.005128940101712942 -0.22398467361927032 0.07848133891820908 0.13496217131614685 0.050484783947467804 -0.012744969688355923 0.006915482692420483 0.013506702147424221 -0.006413411349058151 -0.12125629186630249 -0.12909358739852905 0.01926194131374359 -0.09259866923093796 -0.06785248219966888 0.02142486348748207 -0.049818236380815506 -0.1054459810256958 -0.2072385996580124 0.20033696293830872 0.11190472543239594 0.008135142736136913 0.034839291125535965 0.20514176785945892 0.10687583684921265 0.0014492487534880638 -0.10571395605802536 -0.09119357913732529 -0.17628537118434906 0.035439711064100266 -0.1650584638118744 0.24868111312389374 -0.124142587184906 -0.10351870954036713 -0.0434400700032711 -0.1646508276462555 -0.07067429274320602 0.011590679176151752 0.17132042348384857 0.1375596821308136 -0.27117422223091125 0.018909253180027008 -9.653862070990726E-5 0.030166663229465485 -0.060111887753009796 0.1343422681093216 -0.045987579971551895 0.061928413808345795 0.05634051933884621 -0.06452076137065887 -0.05531802028417587 0.08039999008178711 0.04755336418747902 -0.07376303523778915 -0.10375025123357773 0.16198398172855377 -0.12426301836967468 0.13910634815692902 0.03845132514834404 0.025341983884572983 -0.12517182528972626 0.05710398778319359 0.09434761852025986 0.001098085194826126 0.055860940366983414 -0.10236271470785141 -0.02046828344464302 -0.14603546261787415 -0.06008142977952957 -0.16246093809604645 -0.0028148747514933348 -0.09290775656700134 0.06481320410966873 -0.03494536876678467 0.10097832977771759 0.14290903508663177 0.16071870923042297 -0.03516899794340134 0.1896149218082428 0.010413981974124908 -0.0397326685488224 0.040528252720832825 0.027571413666009903 0.004639129154384136
peppertopping -0.18075703084468842 0.06823822855949402 -0.1171724870800972 0.08497661352157593 0.05599352717399597 0.01196111086755991 0.029794909060001373 0.04671590402722359 -0.066054567694664 -0.04769284278154373 -0.025552701205015182 0.1422506868839264 0.008713416755199432 0.08983838558197021 -0.02412961609661579 0.018305497244000435 0.04752979427576065 -0.07972416281700134 -0.06549982726573944 0.07344735413789749 -0.07575024664402008 -0.15985353291034698 -0.044481534510850906 0.10516718029975891 0.12959790229797363 0.09479422122240067 -0.045927226543426514 -5.204592016525567E-4 -0.11042625457048416 0.1279875636100769 0.029065584763884544 0.004771826788783073 -0.049696944653987885 -0.05901259928941727 0.10987354815006256 0.13807010650634766 0.030467601493000984 -0.05412525683641434 0.08566182851791382 0.10075132548809052 -0.08138570189476013 -0.13738612830638885 0.12665066123008728 0.032352838665246964 -0.12960654497146606 0.003475641366094351 0.04992949590086937 0.20625194907188416 0.024367308244109154 0.0079799247905612 0.0855785682797432 -0.1573680341243744 0.05358877032995224 0.01368685532361269 0.277167409658432 0.08748888969421387 0.01621597819030285 0.0255489069968462 -0.07082173973321915 0.20466481149196625 -4.504309908952564E-4 0.04025987535715103 -0.012921750545501709 0.03488701954483986 -0.07277077436447144 -0.07141121476888657 -0.1180737242102623 -0.09963124990463257 0.017113523557782173 0.023076288402080536 -0.014490464702248573 -0.20751656591892242 -0.17463195323944092 0.2408672422170639 0.02657577581703663 0.05451948195695877 -0.02375050075352192 0.011325267143547535 -0.017576465383172035 -0.24156121909618378 -0.0891440361738205 0.0757492259144783 -0.003557637333869934 -0.059640731662511826 0.2886093258857727 0.015928924083709717 0.04139966517686844 -0.03304949030280113 -0.042187318205833435 -0.01060850266367197 -0.024694491177797318 -0.003055409761145711 -0.24114461243152618 0.08569110184907913 0.13335169851779938 -0.05062665045261383 -0.06021273136138916 -0.11540848016738892 0.01777350902557373 -0.07564698159694672
or....etc. 0.10265468806028366 -0.07908936589956284 0.05447620525956154 -0.117377370595932 0.09478878974914551 0.040105756372213364 0.037760522216558456 -0.004107216373085976 0.13330580294132233 -0.13017001748085022 -0.07872791588306427 -0.11159706860780716 -0.07208970189094543 0.025266945362091064 0.024677034467458725 0.027858439832925797 -0.03107473999261856 0.11876644194126129 0.08490867167711258 -0.00587685639038682 0.013388123363256454 -0.21010570228099823 0.10619297623634338 0.1304839551448822 0.009940330870449543 -0.10272635519504547 0.03503071144223213 -0.04362228885293007 -0.033771127462387085 0.02739371545612812 0.015531814657151699 0.004875363782048225 -0.12462327629327774 0.0019374620169401169 -0.08881108462810516 0.1187228262424469 0.19657398760318756 -0.034627776592969894 0.025960644707083702 0.09587301313877106 -0.012916196137666702 -0.006943340878933668 -0.21297906339168549 -0.10117284953594208 -0.0696730762720108 -0.11225028336048126 -0.09295763820409775 0.03660113364458084 0.23145867884159088 -0.08685855567455292 2.0440765365492553E-4 0.15477895736694336 -0.024315521121025085 -0.1061672642827034 0.07678927481174469 0.14545230567455292 -0.1715804636478424 0.1460716724395752 -0.06203417852520943 -0.2049509435892105 -0.046644214540719986 0.08375394344329834 -0.01822591759264469 0.09473686665296555 -0.01986081153154373 0.014760433696210384 0.09805777668952942 0.06787105649709702 0.1745348423719406 0.23286831378936768 0.17877167463302612 -0.06625045090913773 0.021617228165268898 0.11946593970060349 0.12047110497951508 0.1134290024638176 -0.22435380518436432 0.02659693732857704 0.057643890380859375 -0.05105482041835785 -0.030083052814006805 -0.10123437643051147 -0.01911669597029686 0.0013047595275565982 -0.01661580801010132 0.0070289187133312225 0.1578504890203476 0.0015427992912009358 -0.18649201095104218 -0.10343620181083679 0.024163726717233658 -0.014803387224674225 0.04939107224345207 0.008178051561117172 0.10518031567335129 -0.03627312183380127 -0.10962094366550446 0.12511475384235382 -0.10899689793586731 -0.030447853729128838
meaty 0.11451943963766098 0.044118721038103104 -0.11453370749950409 -0.00653721671551466 0.029643217101693153 -0.10828157514333725 0.011514883488416672 -0.08886566013097763 0.0793050155043602 0.017189430072903633 0.05399998277425766 0.05748020485043526 0.0867195799946785 0.16517649590969086 -0.08583492040634155 0.164978489279747 -0.13280105590820312 -0.1326410174369812 -0.0807289183139801 0.038306985050439835 0.14546310901641846 0.006353271659463644 0.02497112564742565 0.14306901395320892 0.07742652297019958 -0.15803831815719604 -0.07570261508226395 -0.03864568844437599 -0.022576086223125458 -0.06169220432639122 -0.04216408357024193 -0.17685207724571228 0.11519281566143036 0.08138550817966461 -0.031723808497190475 -0.2240253984928131 0.027615487575531006 -0.028694534674286842 0.21451683342456818 0.08261440694332123 0.05711696296930313 0.020340412855148315 -0.09678041934967041 -0.1139274463057518 0.099735327064991 0.12313444167375565 -0.030336901545524597 0.014195967465639114 -0.03181648254394531 0.007428232114762068 -0.05407670885324478 0.04034240543842316 0.05713796615600586 0.07365735620260239 0.015942171216011047 0.0999341756105423 0.23048794269561768 -0.014251787215471268 0.0068670036271214485 -0.18192321062088013 0.037937309592962265 0.17715057730674744 0.10050753504037857 0.005753308068960905 0.15335524082183838 -0.09208133071660995 0.11064328998327255 0.06915539503097534 0.11039968580007553 -0.06618128716945648 -0.1314319372177124 -0.022273210808634758 -0.1285879909992218 -0.05318405479192734 -0.11040354520082474 0.07366258651018143 -0.17700739204883575 0.09393702447414398 -0.2402980476617813 -0.1193246990442276 -0.14098134636878967 -0.03627929836511612 -0.026411553844809532 -0.07830668240785599 0.10573854297399521 -0.07275189459323883 -0.01099563017487526 0.008906237781047821 0.10600592941045761 0.10583578795194626 -0.02832694537937641 -0.06682814657688141 -0.12373487651348114 0.010643133893609047 0.14658525586128235 0.054067302495241165 0.05671963095664978 -0.06429141759872437 0.07797252386808395 0.13412976264953613
ad 0.08445794880390167 -0.10863841325044632 -0.004230296704918146 -0.07172632962465286 0.00482517946511507 0.006280146539211273 0.02299448475241661 0.07800967991352081 -0.08192166686058044 -0.11461450159549713 -0.018486501649022102 0.060821134597063065 0.1428181529045105 0.18781140446662903 -0.01074950024485588 0.019846027716994286 -0.0401846319437027 0.02740512602031231 0.07210979610681534 0.021532101556658745 0.007118405774235725 -0.14455166459083557 -0.03134538233280182 0.12210942059755325 0.051998578011989594 0.0049215215258300304 -0.14275531470775604 -0.14814192056655884 -0.16283616423606873 -0.047305867075920105 0.0037038300652056932 -0.04199715331196785 -0.0520639643073082 0.06879008561372757 0.04668435454368591 -0.1843443512916565 -0.08847867697477341 -0.09338109195232391 0.12350751459598541 -0.12650533020496368 0.07869596034288406 -0.08355013281106949 -0.16673211753368378 -0.008471308276057243 -0.18198087811470032 -0.001071877428330481 0.200470432639122 0.23879216611385345 0.05665397644042969 -0.007661974523216486 -0.05169537663459778 0.12913791835308075 0.08085687458515167 0.08225561678409576 0.2401871681213379 0.05717035382986069 0.05982094258069992 0.03317906707525253 0.017926162108778954 0.12229388952255249 -0.0465896874666214 0.011465375311672688 0.06704873591661453 0.07894453406333923 0.013200712390244007 0.0012415946694090962 -0.03975315019488335 -0.1183914989233017 0.1109737828373909 0.06739391386508942 -0.00732788722962141 0.043688781559467316 -0.016364509239792824 0.085959292948246 -0.03596296161413193 -0.026823246851563454 -0.013512182049453259 0.07290124893188477 -0.1011841669678688 -0.1010710746049881 0.054537802934646606 -0.14671620726585388 0.016526803374290466 0.01243673637509346 -0.11011731624603271 -0.012483428232371807 -0.06439156085252762 -0.03143148124217987 -0.11740081757307053 0.18166546523571014 0.07249765843153 -0.1164829358458519 0.2317657321691513 0.06776764243841171 -0.10458392649888992 0.15629565715789795 0.06625711917877197 -0.2499832808971405 0.1918080449104309 0.02328275702893734
leektopping -0.0032982819247990847 0.04198012873530388 0.040654879063367844 -0.05056656152009964 0.05234133079648018 -0.02587989531457424 0.07374197989702225 0.0518290139734745 0.12773865461349487 0.01966284029185772 -0.2311120331287384 -0.07833936810493469 0.010469291359186172 0.10188427567481995 -0.23967494070529938 0.050207529217004776 -0.06958068162202835 -0.030599141493439674 0.042829688638448715 0.04528318718075752 -0.11210843175649643 0.04493391513824463 0.05099804699420929 0.0026459763757884502 0.004424357321113348 -0.01738906092941761 0.06667450070381165 0.09776106476783752 0.010021604597568512 0.02033071592450142 0.08575472235679626 0.013206642121076584 0.014894376508891582 -0.07072202861309052 0.09277555346488953 0.030483344569802284 0.2138044685125351 0.052222251892089844 0.08998562395572662 0.05297374725341797 -0.1079905703663826 -0.13562169671058655 -0.027025073766708374 0.00658296886831522 0.1627809703350067 0.10621098428964615 -0.06193619221448898 0.06747550517320633 0.06577775627374649 0.19241021573543549 0.03358194977045059 0.10224172472953796 0.2138601392507553 -0.016883645206689835 0.06683515012264252 0.27867841720581055 -0.16570791602134705 -0.011844858527183533 0.037567831575870514 -0.02194608561694622 -0.074225515127182 0.22782142460346222 0.056150585412979126 0.0034102515783160925 -0.19403144717216492 -0.042468614876270294 0.1375064253807068 -0.11094049364328384 0.05373765155673027 0.1701871007680893 -0.004346263594925404 0.004560559056699276 -0.10277329385280609 0.10927112400531769 0.08576226234436035 -0.09623099118471146 -0.029457392171025276 0.17207570374011993 0.11506017297506332 0.10297980159521103 -0.09681674838066101 0.0017186327604576945 0.030333850532770157 0.038479723036289215 0.11653804779052734 -0.0777730643749237 8.769708801992238E-4 -0.15371687710285187 -0.20685717463493347 -0.0189853236079216 -0.08547232300043106 0.047129154205322266 0.057978879660367966 0.011485004797577858 -0.03961068391799927 0.020908555015921593 0.10832672566175461 -0.0369490422308445 0.19992320239543915 0.044964633882045746
mild 0.06585672497749329 0.01767904870212078 0.02618909813463688 0.03451480343937874 0.0013904613442718983 0.03939146548509598 0.056955013424158096 0.019146908074617386 -0.19701829552650452 0.05229387804865837 -0.10269457846879959 -0.03367318585515022 -0.1059642806649208 -0.0747818872332573 -0.10364015400409698 0.08058472722768784 0.00811512116342783 -0.032830994576215744 0.01993708312511444 0.14619770646095276 -0.015294063836336136 0.034286268055438995 0.18917019665241241 0.009197360835969448 -0.1705106794834137 -0.09833908826112747 -0.13057667016983032 -0.03892592340707779 -0.053943365812301636 0.01269054226577282 0.23140418529510498 0.14681336283683777 -0.040365543216466904 -0.02191506139934063 0.042982421815395355 0.07526376843452454 0.09373991191387177 0.0560845285654068 0.10389359295368195 -0.16690455377101898 0.02023215964436531 0.17876096069812775 0.12365002185106277 -0.06168048456311226 -0.03598248213529587 0.012960140593349934 0.14069029688835144 0.008064551278948784 0.0707496926188469 0.09689189493656158 0.05317756533622742 -0.0841958150267601 -0.09536264836788177 0.18907880783081055 -0.008657708764076233 0.11492254585027695 0.03394477814435959 -0.017411351203918457 -0.08011729270219803 0.03651464730501175 -0.1699255257844925 0.10926199704408646 0.04246707633137703 0.08391758054494858 0.08281580358743668 -0.029654143378138542 0.08665945380926132 0.09238491952419281 0.125319704413414 -0.025959158316254616 0.09128794819116592 -0.04708543047308922 -0.08581162244081497 0.04534974694252014 0.16627968847751617 0.08606258034706116 -0.08990311622619629 0.2669765055179596 0.010504492558538914 -0.1072603166103363 -0.0689515471458435 0.0850466936826706 -0.15937456488609314 -0.06602518260478973 0.03711777925491333 0.21814492344856262 0.0011950337793678045 -0.10192343592643738 -0.09385035932064056 -0.07891267538070679 0.07792966067790985 -0.007839455269277096 -0.040599603205919266 0.02445739135146141 0.0669417455792427 -0.11076229065656662 -0.019001146778464317 -0.2594289779663086 0.035897474735975266 -0.18620887398719788
( -0.014760245569050312 -0.06392104923725128 0.05115167796611786 0.005252109840512276 0.17855575680732727 0.13090486824512482 0.055305399000644684 -0.2545926570892334 0.07692518085241318 -0.12040698528289795 -0.009988663718104362 -0.15094013512134552 -0.09698933362960815 0.1086527556180954 -0.05672707036137581 0.12659262120723724 -0.08891458064317703 -0.025961443781852722 -0.07197840511798859 0.0640738233923912 -0.009538055397570133 -0.13089892268180847 0.07129241526126862 0.10335523635149002 -0.06826671957969666 -0.11165837943553925 0.04036147892475128 -0.03751271590590477 0.053693272173404694 -0.15033751726150513 0.009534966200590134 0.04920494556427002 0.09597943723201752 -0.14357531070709229 -0.03993108496069908 0.17922185361385345 0.15706206858158112 -0.07286982983350754 0.17788848280906677 0.09156760573387146 0.06037060543894768 0.01740707829594612 -0.11940939724445343 -0.11590178310871124 -0.11987554281949997 -0.007945897057652473 -0.002693426562473178 -0.0335015170276165 0.13232293725013733 -0.040503982454538345 0.05202854797244072 -0.019505774602293968 0.09511664509773254 -0.042304687201976776 0.11781500279903412 0.024847762659192085 -0.23846754431724548 0.05538475885987282 0.05639622360467911 -0.13360241055488586 -0.16427581012248993 0.13019010424613953 0.12607650458812714 0.01839674822986126 0.11098043620586395 0.14601966738700867 0.05918802320957184 0.02872535213828087 0.1594770848751068 -0.0856134369969368 0.12220854312181473 9.54934221226722E-4 -0.01918361708521843 0.13314102590084076 0.13257837295532227 0.08009028434753418 -0.013766842894256115 0.02207963913679123 -0.0011069545289501548 0.016133416444063187 0.10081657767295837 -0.14707979559898376 -0.058781228959560394 -0.12217347323894501 -0.04477526247501373 -0.1328364908695221 0.12286631017923355 0.03536108881235123 -0.11091102659702301 -0.13157527148723602 0.04314016178250313 -0.018631504848599434 0.13492311537265778 -0.042767446488142014 0.05494246259331703 -0.10526890307664871 -0.054773423820734024 0.11390196532011032 -0.16431975364685059 -0.011639242060482502
) -0.07493822276592255 0.06148853152990341 0.12877580523490906 -0.07455184310674667 0.08835245668888092 0.09632541239261627 -0.013286798261106014 -0.11735706031322479 0.03882583603262901 -0.16419526934623718 0.023968014866113663 -0.09443549066781998 -0.04196019470691681 0.16082710027694702 -0.027167433872818947 0.08052174746990204 0.002517294604331255 -0.03265535458922386 0.0638808161020279 0.15083631873130798 -0.030269626528024673 -0.1906246691942215 -0.002307974034920335 0.14539013803005219 -0.025474606081843376 -0.10473840683698654 0.024397293105721474 -0.0560087189078331 0.006174876354634762 -0.03505294397473335 0.12070953100919724 -0.02563166804611683 -0.17725515365600586 -0.10831291228532791 -0.02854960784316063 0.09385689347982407 0.18958093225955963 0.02349594235420227 0.08909408003091812 0.14988966286182404 -0.0302093755453825 0.0695200264453888 -0.1727512776851654 -0.06360609084367752 0.08660566061735153 -0.08109036833047867 -0.0062768724747002125 0.05628053843975067 0.05072881653904915 -0.10696756839752197 -0.015111994929611683 0.04921483248472214 0.11529739201068878 0.023978184908628464 0.1449674665927887 0.01318664476275444 -0.15560069680213928 0.09033188223838806 0.08331630378961563 -0.2427910566329956 -0.2406710386276245 0.15412595868110657 4.387367225717753E-4 0.10458134859800339 -0.10659941285848618 -0.0904531180858612 -0.023439155891537666 0.04196532815694809 0.052202459424734116 0.014798418618738651 0.044550612568855286 0.06389808654785156 0.01699191890656948 0.11696804314851761 0.026145122945308685 0.21483871340751648 -0.1270625740289688 -0.0012516630813479424 -0.028425496071577072 -0.028635140508413315 0.022614479064941406 -0.20180968940258026 -0.06560336798429489 -2.090268098982051E-4 -0.03044341877102852 0.029381340369582176 0.11291441321372986 -0.016951272264122963 -0.05113790184259415 -0.13419096171855927 -0.08818553388118744 0.07122205197811127 0.18903306126594543 0.06960812211036682 0.19638937711715698 0.061086494475603104 -0.13771097362041473 0.09897248446941376 -0.1111069917678833 -0.002440800191834569
require -0.07058101892471313 0.08817342668771744 0.06531570851802826 0.027157213538885117 -0.018783649429678917 0.060471512377262115 -0.11645612120628357 0.01383459847420454 -0.15778686106204987 -0.052197836339473724 -0.037730246782302856 0.0031981056090444326 -0.09414473176002502 0.1578287035226822 0.05092494562268257 0.1163124069571495 0.08850113302469254 -0.12669774889945984 0.04217756167054176 0.07835076749324799 -0.0012596581364050508 -0.23763081431388855 -0.024812214076519012 0.021911948919296265 0.002807337325066328 -0.1134706437587738 0.015576080419123173 -0.01878155954182148 -0.0045493668876588345 -0.003783017862588167 0.02149137854576111 -0.08011717349290848 0.031114131212234497 -0.18050424754619598 -0.16368775069713593 0.1479874849319458 0.04651806131005287 -0.00967915914952755 0.17790335416793823 0.20004281401634216 0.03855699673295021 0.07947330921888351 -0.11580819636583328 0.12065763026475906 -0.05793948471546173 -0.05107560008764267 0.08957400918006897 0.14269451797008514 -0.005591189488768578 -0.14697878062725067 0.08274573087692261 -0.018691202625632286 0.003090044716373086 0.04018489271402359 -0.11118058115243912 0.04829196259379387 -0.017985934391617775 -0.08194956183433533 -0.034224074333906174 -0.14270740747451782 -0.06479950249195099 0.11827967315912247 -0.04850184544920921 0.23205828666687012 -0.09427247941493988 -0.053544823080301285 -0.10344354063272476 0.054802555590867996 0.13098706305027008 0.03812992200255394 0.13336771726608276 0.04838172346353531 0.0487193763256073 0.020435500890016556 0.008490213192999363 0.18644092977046967 -0.07291564345359802 -0.11599871516227722 -0.0775279626250267 -9.951455285772681E-4 -0.12699373066425323 -0.1458793431520462 0.012032240629196167 0.05431373044848442 -0.07463051378726959 -0.07033991813659668 -0.16074730455875397 -0.0932498574256897 -0.06431837379932404 0.018392547965049744 -0.10938948392868042 0.15034836530685425 0.31988075375556946 -0.0030957553535699844 0.16275173425674438 0.09189000725746155 -0.035892464220523834 -0.05138755217194557 -0.09257430583238602 0.01963329128921032
, 0.0623578280210495 0.07273498922586441 0.1305052638053894 0.04753609374165535 0.13152985274791718 0.036119118332862854 -0.05055677890777588 -0.1694900542497635 0.013931481167674065 -0.11637551337480545 -0.017601253464818 -0.051394738256931305 -0.06389900296926498 0.054407041519880295 0.013260064646601677 0.15441268682479858 0.13191869854927063 0.12133174389600754 -0.07265374064445496 -0.03217251971364021 0.038447409868240356 -0.11272469162940979 0.013343516737222672 0.11313554644584656 -5.320960190147161E-4 -0.19259460270404816 -0.10668101161718369 -0.059539832174777985 -4.6979531180113554E-4 -0.2106180638074875 -0.16748030483722687 -0.1455070823431015 0.05100104585289955 -0.05507997050881386 0.01923316903412342 0.197818323969841 0.09957094490528107 -0.12575629353523254 0.20661120116710663 0.0952160581946373 0.06356262415647507 0.016758397221565247 -0.057572606950998306 -0.0706012174487114 -0.13026709854602814 -0.02031647227704525 0.011296878568828106 0.12444134801626205 0.1075032576918602 -0.04945181682705879 0.03221086785197258 -0.028451994061470032 -0.01912439987063408 -0.023976394906640053 0.14605243504047394 0.012910468503832817 -0.05377892777323723 -0.03680099919438362 -0.0899815559387207 -0.09147588163614273 -0.1317535936832428 0.05064821243286133 -0.04733879491686821 0.030466031283140182 0.08964879810810089 0.0309087373316288 -0.05180313438177109 0.14486202597618103 0.14309318363666534 -0.2179330289363861 0.11359214782714844 0.06140490621328354 -0.099118672311306 0.049534451216459274 0.09499814361333847 0.16281917691230774 -0.13451658189296722 0.09026775509119034 -0.08239302039146423 -0.0836997851729393 0.1666966676712036 -0.1882442831993103 -0.01957414299249649 0.0021334667690098286 -0.08044810593128204 -0.05988382548093796 0.06414651870727539 0.15849559009075165 0.033364299684762955 -0.22805839776992798 -0.1258057951927185 0.024464977905154228 0.0805274248123169 -0.0015953269321471453 0.034984417259693146 0.012811240740120411 -0.1090858057141304 0.028222450986504555 -0.11491088569164276 0.031239885836839676
Subclasses 0.06280747801065445 -0.031524281948804855 0.07761504501104355 -0.06960957497358322 0.08717106282711029 0.1480548232793808 -0.055851276963949203 -0.10736629366874695 0.07993635535240173 -0.17084753513336182 -0.14840611815452576 -0.13055425882339478 -0.16802895069122314 0.11026448756456375 0.017346216365695 -0.018638232722878456 -0.05381900817155838 -0.0035995226353406906 -0.08350446820259094 0.06795082241296768 0.029922202229499817 -0.17306146025657654 0.07462217658758163 0.10111797600984573 -0.06609272956848145 -0.08840096741914749 -0.048703648149967194 0.009457025676965714 0.01964661106467247 0.056285154074430466 0.060541409999132156 0.10711537301540375 0.022260235622525215 -0.05724507197737694 -0.13440033793449402 0.11363379657268524 0.24331586062908173 -0.05641457810997963 0.10674353688955307 0.09176869690418243 0.07670854032039642 -0.014703335240483284 -0.14448176324367523 -0.0788220688700676 -0.17949578166007996 -0.13148368895053864 -0.07241324335336685 0.080810546875 0.07120382785797119 -0.011623143218457699 -0.0013231798075139523 0.10815498977899551 0.035123102366924286 -0.10289105027914047 0.053701434284448624 0.09683552384376526 -0.09239916503429413 0.07552715390920639 -0.077168770134449 -0.18581505119800568 -0.11972524225711823 0.16589303314685822 0.023662341758608818 0.05711572244763374 0.020927393808960915 0.010485769249498844 0.016357552260160446 0.17208029329776764 0.1306881159543991 0.044530875980854034 0.018140031024813652 0.09471496194601059 -0.06589171290397644 0.14102207124233246 0.1227739006280899 0.035417210310697556 -0.1836307793855667 0.015836816281080246 0.09596358984708786 0.03829435259103775 0.04482210427522659 -0.04580763354897499 -0.08060362935066223 -0.0013706210302188993 -1.1115931556560099E-4 -0.10833867639303207 0.11535721272230148 -0.07243341952562332 -0.2470587193965912 -0.15283848345279694 -0.003920343238860369 0.08758596330881119 0.25690916180610657 -0.05742232874035835 0.011519411578774452 0.0029267468489706516 -0.07822628319263458 0.04133589565753937 -0.11236756294965744 -0.10093148052692413
Hot -0.036831874400377274 -0.018728844821453094 -0.11577629297971725 -0.006589224562048912 -0.0028996686451137066 0.09988382458686829 -0.1309182345867157 0.08363880962133408 0.08256682008504868 -0.06303073465824127 0.07671193778514862 -0.15736770629882812 0.027980400249361992 0.14419935643672943 -0.015977036207914352 -0.09526902437210083 -0.07307630777359009 0.07878237217664719 -0.1293710619211197 0.26253587007522583 0.011876251548528671 0.11898861080408096 0.08745653927326202 -0.0011522583663463593 -0.14094899594783783 -0.10084693878889084 -0.07802283763885498 -0.0693666860461235 -0.04667432978749275 0.04927928000688553 -0.15631474554538727 0.03862648457288742 0.03604508563876152 -0.06301594525575638 -0.04255159571766853 0.07355745881795883 -0.015089219436049461 0.03348216786980629 0.12330805510282516 0.17334353923797607 0.1603894978761673 -0.11537979543209076 0.054841820150613785 -0.11303051561117172 -0.2387385368347168 0.03512028604745865 -0.03228481486439705 0.10463851690292358 -0.013204067945480347 -0.09775092452764511 0.07479455322027206 -0.29262587428092957 -0.044759351760149 0.06059391796588898 0.07304421812295914 -0.029607249423861504 0.05550925433635712 -0.05787323787808418 0.11241046339273453 0.13019242882728577 0.012371711432933807 0.0831504687666893 0.013377120718359947 0.013250095769762993 0.0774618610739708 0.12598569691181183 0.024846317246556282 0.11581237614154816 0.057243604212999344 0.06215589493513107 -0.02806275151669979 0.11119530349969864 -0.12808957695960999 0.04709527641534805 -0.054718468338251114 -0.036751359701156616 -0.09003548324108124 0.08712178468704224 0.0742582157254219 -0.05986539274454117 0.20022034645080566 -0.036641925573349 0.02765512838959694 -0.14964942634105682 -0.02617446705698967 -0.2144501954317093 0.10328729450702667 0.0611596554517746 -0.1409434974193573 -0.02033691480755806 0.221434086561203 0.018536580726504326 0.05965345352888107 0.017287740483880043 0.08630316704511642 0.145596444606781 -0.05054568871855736 0.07097943127155304 0.08840805292129517 -0.01162982452660799
an -0.09871524572372437 0.041271109133958817 0.19042806327342987 0.022699996829032898 0.1685604453086853 -0.1260821521282196 -0.0979422926902771 0.059271447360515594 -0.1318378746509552 -0.017778337001800537 -0.15268383920192719 -0.0036229488905519247 -0.07496043294668198 0.11620362848043442 0.02806987054646015 -0.0014490640023723245 0.01140850130468607 -0.13945713639259338 0.003192200092598796 -0.03492993861436844 0.07709166407585144 -0.07279030978679657 0.018765196204185486 0.07820487022399902 -0.08708267658948898 -0.07990521937608719 -0.03376006707549095 0.08171115070581436 0.09286510199308395 -0.1462797075510025 -0.03791016712784767 -0.15702933073043823 0.12255381792783737 -0.1794206202030182 -0.035968173295259476 0.2107519507408142 0.08479788154363632 -0.04623577371239662 0.08705372363328934 0.06733281910419464 0.15877628326416016 0.03822806105017662 -0.23011519014835358 0.10433126986026764 -0.0369616374373436 0.037094756960868835 0.04775822162628174 0.21557500958442688 -0.09284426271915436 -0.10418662428855896 0.00956815667450428 -0.1438707411289215 0.041323769837617874 0.0412939116358757 -0.043906230479478836 -0.021738434210419655 -0.18491600453853607 -0.10057453066110611 -0.03760359808802605 -0.13764458894729614 -0.032223183661699295 0.03564199432730675 0.02093711867928505 0.09457013010978699 0.028659367933869362 -0.0655972957611084 -0.025008631870150566 -0.01566837728023529 0.06891646981239319 -0.11713270843029022 0.16108165681362152 0.07768476754426956 0.06603036820888519 -0.0688738003373146 0.06338932365179062 0.07752145826816559 -0.07698675990104675 -0.08642812073230743 -0.11722071468830109 0.007047953549772501 0.06224788352847099 -0.049473606050014496 0.03820910304784775 0.15267451107501984 -0.07092107087373734 -0.2866705060005188 -0.1374834030866623 -0.14105521142482758 -0.08893868327140808 -0.08300672471523285 0.029338520020246506 0.06271348893642426 -0.017351346090435982 -0.09117233753204346 0.061482593417167664 0.18199950456619263 0.02489604614675045 -0.04196993261575699 -0.0861227810382843 0.05850915238261223
- 0.025189699605107307 0.09012585133314133 0.12932884693145752 0.01404584664851427 0.20423166453838348 0.043300747871398926 0.030181244015693665 -0.012044468894600868 -0.02027430757880211 -0.04177776351571083 -0.12796653807163239 -0.10434391349554062 -0.07811687141656876 0.07475634664297104 -0.00898802187293768 0.0424029715359211 -0.05987600237131119 -0.05168522149324417 -0.06474938988685608 0.04050961136817932 0.07247252017259598 -0.11134526878595352 0.13660046458244324 0.15021179616451263 -0.11094577610492706 -0.06228271499276161 0.14472590386867523 0.001127576339058578 0.0410199910402298 -0.054981719702482224 -0.08301082253456116 0.05995063856244087 -0.09871634840965271 -0.09576790034770966 0.020110581070184708 0.1332499384880066 0.1720397174358368 -0.08360861986875534 0.1824229210615158 0.16582916676998138 -0.01730462536215782 -0.032342180609703064 0.026342108845710754 -0.07540024816989899 0.10454202443361282 0.04012675955891609 -0.01679237373173237 0.08361648768186569 0.16717079281806946 -0.16604772210121155 0.11021702736616135 0.007568197790533304 -0.013633822090923786 -0.08314251154661179 0.023305833339691162 0.051168084144592285 -0.20545844733715057 0.01081816852092743 -0.02764597162604332 -0.16537372767925262 -0.21236611902713776 0.1342748999595642 -0.0297735333442688 0.08352892845869064 -0.004773083608597517 0.11753557622432709 -0.15292541682720184 -0.01656883768737316 0.15674367547035217 0.027238450944423676 0.056784626096487045 0.03820741921663284 -0.1480170637369156 0.02949519269168377 0.16403044760227203 0.0829148143529892 -0.16602379083633423 -0.05464983731508255 0.04017786309123039 -0.09738577902317047 0.1283968985080719 -0.1850176453590393 -0.11592687666416168 0.059993766248226166 -0.10142175853252411 -0.14826743304729462 0.07591091841459274 0.07201606780290604 -0.04545970633625984 -0.05182287096977234 0.14878952503204346 0.03890451416373253 0.08666600286960602 -0.029947472736239433 0.11257247626781464 0.17813098430633545 -0.03387739881873131 0.1255708783864975 -0.0629395917057991 0.056872427463531494
MozzarellaTopping 0.11528471857309341 -0.053514353930950165 -0.01688474975526333 0.0055399988777935505 0.006757678929716349 0.055280204862356186 0.07846580445766449 -0.09004715085029602 -0.014363832771778107 0.027240542694926262 -0.1534450501203537 -0.11028318852186203 -0.0571698322892189 0.1368188112974167 -0.16082216799259186 -0.044534724205732346 -0.11676771938800812 0.1353236436843872 -0.13384300470352173 0.06356467306613922 -0.045926209539175034 0.06556376069784164 0.03408601135015488 0.004475603811442852 0.036924175918102264 0.017961883917450905 -0.06168647110462189 0.08820366859436035 -0.027217227965593338 -0.1668439507484436 -0.020019907504320145 -0.07018047571182251 0.07371065765619278 -0.18896906077861786 -0.04207869991660118 0.07937838137149811 0.05067955330014229 0.040253251791000366 -0.005028755869716406 0.13134416937828064 0.06484749913215637 0.1600944846868515 0.03828297182917595 0.004652110859751701 -0.052537791430950165 0.02411123737692833 -0.09464437514543533 0.03991151973605156 0.04909795522689819 0.017753105610609055 0.06551037728786469 -0.07085654139518738 -0.15591107308864594 0.03673917055130005 -0.015427478589117527 -0.07373849302530289 -0.18917201459407806 -0.08146172761917114 -0.0650758221745491 -0.0052781482227146626 -0.07066032290458679 0.23805122077465057 -0.1613023579120636 0.13357943296432495 0.029803285375237465 -0.044858917593955994 -0.16147597134113312 0.08709070086479187 0.16031533479690552 0.05040955916047096 -0.022518789395689964 0.12914644181728363 -0.03244905173778534 0.19313138723373413 0.14027142524719238 -0.10081453621387482 -0.10845949500799179 0.11980496346950531 -0.04140402376651764 -0.062097467482089996 0.13273108005523682 -0.07559623569250107 0.03217979148030281 -0.05339078977704048 -0.11049618571996689 -0.15908581018447876 0.0404740571975708 -0.1522020548582077 -0.09740448743104935 -0.16535688936710358 0.23392079770565033 0.07881801575422287 0.24093632400035858 -0.05422527343034744 0.04826274514198303 -0.0093466741964221 0.11335357278585434 -0.0055114408023655415 0.09067852050065994 -0.07651011645793915
. 0.06618116796016693 -0.10803040117025375 0.12409289181232452 -0.027543092146515846 0.16210664808750153 -0.0323723740875721 -0.16416539251804352 -0.06119202822446823 0.06726887822151184 -0.08161928504705429 0.0259011872112751 -0.04622333496809006 -0.15442883968353271 0.07981093972921371 -0.01857571490108967 0.12936721742153168 -0.00256093917414546 -0.09221015125513077 0.0485638827085495 -0.03639465570449829 -0.0653829425573349 -0.17617690563201904 0.05303287133574486 0.12379719316959381 -0.08181691914796829 -0.17663244903087616 -0.03049124963581562 -0.0889388769865036 -0.018891185522079468 -0.11359630525112152 -0.03032965026795864 -0.10410227626562119 -0.0994853600859642 -0.09546814858913422 0.05430905520915985 0.10443631559610367 0.0885743498802185 0.03681078180670738 0.07739794254302979 0.13138724863529205 0.04295629635453224 -0.008877723477780819 -0.19049185514450073 -0.03150045499205589 -0.05979209765791893 -0.11110541969537735 0.09919121116399765 0.06703417748212814 0.07874511182308197 -0.1515708714723587 0.00965226162225008 0.04681101068854332 0.03941984102129936 -0.02750883437693119 0.16801750659942627 -0.0504823699593544 -0.10813253372907639 0.023752955719828606 -0.04024365916848183 -0.1694122701883316 -0.06210194528102875 0.10239267349243164 -0.12000684440135956 0.11872521787881851 0.006810097023844719 -0.03197011351585388 -0.1167401522397995 0.07135244458913803 0.06377550214529037 -0.06365956366062164 0.12801168859004974 0.046193450689315796 -0.11589165031909943 -0.046381838619709015 0.04427715018391609 0.1463434100151062 -0.2734145522117615 -0.020211420953273773 -0.06477491557598114 -0.008716635406017303 -0.012385434471070766 -0.06552587449550629 0.007916041649878025 -0.03906163573265076 -0.15253880620002747 -0.13636593520641327 0.011775298975408077 -0.0038029130082577467 -0.03811400756239891 -0.3392552435398102 -0.1862957924604416 0.028117911890149117 0.18259014189243317 0.06549447029829025 0.013598833233118057 -0.025575798004865646 -0.09993276745080948 -0.0166492722928524 -0.10106687992811203 -0.04977256804704666
Herb -0.16472554206848145 0.003842828795313835 -0.0835609883069992 0.03049001842737198 -0.01661677658557892 0.023750251159071922 -0.104366235435009 0.009847564622759819 0.06161148101091385 -0.050788573920726776 0.0028448584489524364 -0.16325539350509644 -0.11330948024988174 0.07571917772293091 -0.1037851944565773 -0.09850171208381653 -0.022414952516555786 0.08289311826229095 -0.12000677734613419 0.07263554632663727 0.06734708696603775 -0.018886975944042206 0.11789783835411072 0.019558880478143692 0.0199439637362957 -0.04407818242907524 -0.10638590157032013 0.03931604325771332 -0.042133938521146774 -0.12136464565992355 -0.14553965628147125 0.055496182292699814 0.028054405003786087 -0.06652016192674637 -0.1668735146522522 0.09414220601320267 0.19749362766742706 -0.01549120619893074 0.0689486414194107 0.24593383073806763 0.17362043261528015 0.029723208397626877 -0.033030860126018524 -0.10207429528236389 -0.05475853383541107 -0.05770004168152809 -0.1998060792684555 0.21024522185325623 -0.007368152029812336 -0.09931356459856033 -0.04140538349747658 -0.1538853645324707 -0.015285959467291832 0.06287966668605804 0.03925508260726929 0.02361883781850338 -0.057890187948942184 0.0842021182179451 -0.02154308184981346 -0.11600608378648758 -0.0630217120051384 0.15246246755123138 -0.0649368166923523 0.10153423249721527 0.051390647888183594 0.0027383891865611076 -0.1451030969619751 0.11986921727657318 0.13085660338401794 0.1387050449848175 -0.12095800042152405 0.09309354424476624 -0.14965878427028656 0.15272900462150574 -0.09163425862789154 -0.05071249231696129 -0.22372357547283173 0.08112923800945282 0.11396275460720062 -0.03625185042619705 0.040251683443784714 0.10717426240444183 0.032169949263334274 -0.10683692991733551 -0.0872352197766304 -0.12030407041311264 -0.023479893803596497 0.011921901255846024 -0.1144949197769165 -0.058910708874464035 0.06584399193525314 0.029592106118798256 0.15909896790981293 -0.016784965991973877 0.18558776378631592 0.0729677602648735 -0.02608630247414112 0.11703651398420334 0.08160284906625748 0.09925338625907898
as -0.03750653937458992 -0.05415070429444313 0.18411391973495483 0.07745152711868286 0.23154619336128235 0.0644528865814209 0.014660841785371304 -0.18736904859542847 0.01835852488875389 -0.02951497957110405 -0.06439262628555298 -0.03934283182024956 -0.05074673146009445 0.059581633657217026 0.0866239070892334 0.018947234377264977 -0.035547927021980286 0.0038423147052526474 -0.04096926376223564 0.045885901898145676 -0.00787676777690649 -3.085655625909567E-4 0.11189734190702438 0.11674819141626358 -0.08985894173383713 -0.129813551902771 0.13905595242977142 -0.03696779906749725 -0.015443062409758568 -0.13951358199119568 -0.014168388210237026 -0.003181169740855694 -0.03414313495159149 -0.14405997097492218 -0.116610087454319 0.09930519759654999 0.17706763744354248 -0.13940776884555817 0.18025518953800201 0.17062681913375854 0.028271468356251717 0.026050906628370285 -0.19013959169387817 -0.1701337844133377 -0.041864000260829926 -0.042104240506887436 0.0133224967867136 0.050441890954971313 0.018584277480840683 -0.12922333180904388 0.02753281593322754 0.017722148448228836 0.11738137155771255 0.002917984500527382 0.038859277963638306 0.12735618650913239 -0.21345478296279907 0.06132692098617554 -0.055112212896347046 -0.15401342511177063 -0.11846457421779633 0.14509980380535126 0.08319181203842163 0.09593284875154495 0.12450995296239853 0.04865134507417679 -0.024616073817014694 0.06259247660636902 0.22422493994235992 -0.036307964473962784 0.12051248550415039 -0.05106062814593315 -0.09786798804998398 0.16012753546237946 0.12906762957572937 0.1883426159620285 -0.0657036080956459 0.04646986722946167 -0.03827229142189026 0.037061192095279694 0.0019317675614729524 -0.1990087926387787 -0.12184468656778336 -0.022320659831166267 0.04554646462202072 -0.10965629667043686 0.12015091627836227 0.07411129027605057 -0.0595511831343174 -0.09660647809505463 -0.027302034199237823 0.06907741725444794 0.03396333009004593 0.051397159695625305 0.14163129031658173 -0.01676158979535103 -0.07832848280668259 0.09332848340272903 -0.056252069771289825 -0.011771729215979576
2 -0.017785213887691498 -0.0253464188426733 0.05824120342731476 0.04119953513145447 -0.0012695880141109228 0.08790193498134613 0.12027571350336075 -0.12412762641906738 0.2322111576795578 -0.033958714455366135 -0.08098938316106796 -0.08090555667877197 -0.11904722452163696 0.1123393326997757 -0.009608308784663677 0.17099788784980774 -0.13239194452762604 0.006362033076584339 -0.1592898666858673 -0.023476792499423027 -0.008691074326634407 -0.07232239097356796 0.055184897035360336 0.0937032401561737 0.06091663986444473 -0.1571071445941925 -0.08448676019906998 -0.07892431318759918 0.1074548065662384 -0.2332475483417511 0.020338408648967743 -0.075954370200634 0.1388644576072693 -0.18647633492946625 -0.08401802182197571 0.1888447403907776 0.028061507269740105 -0.07446756958961487 0.07400418817996979 0.0801333636045456 0.012219349853694439 -0.051216792315244675 -0.00448701111599803 -0.04446077719330788 -0.13589617609977722 -0.02142917364835739 0.041773390024900436 -0.15862582623958588 0.14365987479686737 -0.0258831437677145 0.016201039776206017 -0.07452830672264099 -0.08246144652366638 0.024227280169725418 0.1519714742898941 0.08758634328842163 -0.1570056676864624 0.05242050439119339 0.04037093743681908 -0.03065796196460724 -0.12930679321289062 0.1474517434835434 -0.062219489365816116 -0.013448907062411308 0.05340258404612541 0.04998241737484932 0.1390429139137268 -0.08503320068120956 0.12415025383234024 -0.11856233328580856 0.13896530866622925 0.047972146421670914 0.018262194469571114 0.15373890101909637 0.05525946244597435 0.14187131822109222 0.02862318605184555 0.031979452818632126 -0.08555886894464493 -0.0069118584506213665 0.048786722123622894 -0.1639777421951294 -0.03714314475655556 -0.09689270704984665 -0.016938194632530212 -0.11684587597846985 0.06690942496061325 -0.01529147569090128 -0.021881556138396263 -0.07549584656953812 -0.01705244742333889 4.412351408973336E-4 0.23257741332054138 -0.04039398208260536 0.045104388147592545 -0.15445683896541595 -0.09685971587896347 -0.01243529375642538 -0.2405637502670288 -0.024813327938318253
